digraph Tree {
node [shape=box, fontname="helvetica"] ;
edge [fontname="helvetica"] ;
0 [label="x[0] <= 500.5\ngini = 0.489\nsamples = 100000\nvalue = [57513, 42487]"] ;
1 [label="gini = 0.0\nsamples = 50026\nvalue = [50026, 0]"] ;
0 -> 1 [labeldistance=2.5, labelangle=45, headlabel="True"] ;
2 [label="x[1] <= 300.5\ngini = 0.255\nsamples = 49974\nvalue = [7487.0, 42487.0]"] ;
0 -> 2 [labeldistance=2.5, labelangle=-45, headlabel="False"] ;
3 [label="x[2] <= 150.5\ngini = 0.5\nsamples = 15042\nvalue = [7487, 7555]"] ;
2 -> 3 ;
4 [label="gini = 0.0\nsamples = 2350\nvalue = [2350, 0]"] ;
3 -> 4 ;
5 [label="x[3] <= 800.5\ngini = 0.482\nsamples = 12692\nvalue = [5137, 7555]"] ;
3 -> 5 ;
6 [label="x[0] <= 754.5\ngini = 0.5\nsamples = 10182\nvalue = [5137, 5045]"] ;
5 -> 6 ;
7 [label="x[1] <= 0.5\ngini = 0.499\nsamples = 5185\nvalue = [2678, 2507]"] ;
6 -> 7 ;
8 [label="x[0] <= 669.5\ngini = 0.188\nsamples = 19\nvalue = [2, 17]"] ;
7 -> 8 ;
9 [label="gini = 0.0\nsamples = 13\nvalue = [0, 13]"] ;
8 -> 9 ;
10 [label="x[2] <= 653.5\ngini = 0.444\nsamples = 6\nvalue = [2, 4]"] ;
8 -> 10 ;
11 [label="x[2] <= 384.0\ngini = 0.444\nsamples = 3\nvalue = [2, 1]"] ;
10 -> 11 ;
12 [label="gini = 0.0\nsamples = 1\nvalue = [0, 1]"] ;
11 -> 12 ;
13 [label="gini = 0.0\nsamples = 2\nvalue = [2, 0]"] ;
11 -> 13 ;
14 [label="gini = 0.0\nsamples = 3\nvalue = [0, 3]"] ;
10 -> 14 ;
15 [label="x[2] <= 159.5\ngini = 0.499\nsamples = 5166\nvalue = [2676, 2490]"] ;
7 -> 15 ;
16 [label="x[0] <= 506.5\ngini = 0.423\nsamples = 46\nvalue = [32, 14]"] ;
15 -> 16 ;
17 [label="gini = 0.0\nsamples = 2\nvalue = [0, 2]"] ;
16 -> 17 ;
18 [label="x[3] <= 350.0\ngini = 0.397\nsamples = 44\nvalue = [32, 12]"] ;
16 -> 18 ;
19 [label="x[0] <= 571.0\ngini = 0.48\nsamples = 20\nvalue = [12, 8]"] ;
18 -> 19 ;
20 [label="gini = 0.0\nsamples = 5\nvalue = [5, 0]"] ;
19 -> 20 ;
21 [label="x[3] <= 153.5\ngini = 0.498\nsamples = 15\nvalue = [7, 8]"] ;
19 -> 21 ;
22 [label="x[3] <= 58.5\ngini = 0.278\nsamples = 6\nvalue = [5, 1]"] ;
21 -> 22 ;
23 [label="gini = 0.0\nsamples = 1\nvalue = [0, 1]"] ;
22 -> 23 ;
24 [label="gini = 0.0\nsamples = 5\nvalue = [5, 0]"] ;
22 -> 24 ;
25 [label="x[2] <= 158.5\ngini = 0.346\nsamples = 9\nvalue = [2, 7]"] ;
21 -> 25 ;
26 [label="x[2] <= 153.5\ngini = 0.219\nsamples = 8\nvalue = [1, 7]"] ;
25 -> 26 ;
27 [label="x[1] <= 170.5\ngini = 0.5\nsamples = 2\nvalue = [1, 1]"] ;
26 -> 27 ;
28 [label="gini = 0.0\nsamples = 1\nvalue = [0, 1]"] ;
27 -> 28 ;
29 [label="gini = 0.0\nsamples = 1\nvalue = [1, 0]"] ;
27 -> 29 ;
30 [label="gini = 0.0\nsamples = 6\nvalue = [0, 6]"] ;
26 -> 30 ;
31 [label="gini = 0.0\nsamples = 1\nvalue = [1, 0]"] ;
25 -> 31 ;
32 [label="x[3] <= 783.5\ngini = 0.278\nsamples = 24\nvalue = [20, 4]"] ;
18 -> 32 ;
33 [label="x[0] <= 673.0\ngini = 0.227\nsamples = 23\nvalue = [20, 3]"] ;
32 -> 33 ;
34 [label="gini = 0.0\nsamples = 13\nvalue = [13, 0]"] ;
33 -> 34 ;
35 [label="x[0] <= 680.5\ngini = 0.42\nsamples = 10\nvalue = [7, 3]"] ;
33 -> 35 ;
36 [label="gini = 0.0\nsamples = 2\nvalue = [0, 2]"] ;
35 -> 36 ;
37 [label="x[1] <= 201.5\ngini = 0.219\nsamples = 8\nvalue = [7, 1]"] ;
35 -> 37 ;
38 [label="gini = 0.0\nsamples = 6\nvalue = [6, 0]"] ;
37 -> 38 ;
39 [label="x[0] <= 710.5\ngini = 0.5\nsamples = 2\nvalue = [1, 1]"] ;
37 -> 39 ;
40 [label="gini = 0.0\nsamples = 1\nvalue = [0, 1]"] ;
39 -> 40 ;
41 [label="gini = 0.0\nsamples = 1\nvalue = [1, 0]"] ;
39 -> 41 ;
42 [label="gini = 0.0\nsamples = 1\nvalue = [0, 1]"] ;
32 -> 42 ;
43 [label="x[0] <= 748.5\ngini = 0.499\nsamples = 5120\nvalue = [2644, 2476]"] ;
15 -> 43 ;
44 [label="x[3] <= 705.5\ngini = 0.5\nsamples = 4982\nvalue = [2559, 2423]"] ;
43 -> 44 ;
45 [label="x[1] <= 42.5\ngini = 0.499\nsamples = 4376\nvalue = [2273, 2103]"] ;
44 -> 45 ;
46 [label="x[2] <= 492.0\ngini = 0.499\nsamples = 609\nvalue = [294, 315]"] ;
45 -> 46 ;
47 [label="x[3] <= 30.5\ngini = 0.495\nsamples = 227\nvalue = [125.0, 102.0]"] ;
46 -> 47 ;
48 [label="gini = 0.0\nsamples = 8\nvalue = [8, 0]"] ;
47 -> 48 ;
49 [label="x[3] <= 499.0\ngini = 0.498\nsamples = 219\nvalue = [117, 102]"] ;
47 -> 49 ;
50 [label="x[3] <= 47.5\ngini = 0.498\nsamples = 146\nvalue = [68, 78]"] ;
49 -> 50 ;
51 [label="gini = 0.0\nsamples = 6\nvalue = [0, 6]"] ;
50 -> 51 ;
52 [label="x[3] <= 480.0\ngini = 0.5\nsamples = 140\nvalue = [68, 72]"] ;
50 -> 52 ;
53 [label="x[0] <= 516.5\ngini = 0.5\nsamples = 134\nvalue = [68, 66]"] ;
52 -> 53 ;
54 [label="gini = 0.0\nsamples = 5\nvalue = [0, 5]"] ;
53 -> 54 ;
55 [label="x[0] <= 744.0\ngini = 0.499\nsamples = 129\nvalue = [68, 61]"] ;
53 -> 55 ;
56 [label="x[0] <= 526.5\ngini = 0.495\nsamples = 124\nvalue = [68, 56]"] ;
55 -> 56 ;
57 [label="gini = 0.0\nsamples = 6\nvalue = [6, 0]"] ;
56 -> 57 ;
58 [label="x[0] <= 564.0\ngini = 0.499\nsamples = 118\nvalue = [62.0, 56.0]"] ;
56 -> 58 ;
59 [label="x[3] <= 466.0\ngini = 0.397\nsamples = 22\nvalue = [6, 16]"] ;
58 -> 59 ;
60 [label="x[1] <= 17.0\ngini = 0.291\nsamples = 17\nvalue = [3, 14]"] ;
59 -> 60 ;
61 [label="gini = 0.0\nsamples = 8\nvalue = [0, 8]"] ;
60 -> 61 ;
62 [label="x[0] <= 546.0\ngini = 0.444\nsamples = 9\nvalue = [3, 6]"] ;
60 -> 62 ;
63 [label="x[0] <= 531.0\ngini = 0.375\nsamples = 4\nvalue = [3, 1]"] ;
62 -> 63 ;
64 [label="gini = 0.0\nsamples = 1\nvalue = [0, 1]"] ;
63 -> 64 ;
65 [label="gini = 0.0\nsamples = 3\nvalue = [3, 0]"] ;
63 -> 65 ;
66 [label="gini = 0.0\nsamples = 5\nvalue = [0, 5]"] ;
62 -> 66 ;
67 [label="x[0] <= 546.0\ngini = 0.48\nsamples = 5\nvalue = [3, 2]"] ;
59 -> 67 ;
68 [label="x[2] <= 439.5\ngini = 0.444\nsamples = 3\nvalue = [1, 2]"] ;
67 -> 68 ;
69 [label="gini = 0.0\nsamples = 2\nvalue = [0, 2]"] ;
68 -> 69 ;
70 [label="gini = 0.0\nsamples = 1\nvalue = [1, 0]"] ;
68 -> 70 ;
71 [label="gini = 0.0\nsamples = 2\nvalue = [2, 0]"] ;
67 -> 71 ;
72 [label="x[3] <= 244.0\ngini = 0.486\nsamples = 96\nvalue = [56, 40]"] ;
58 -> 72 ;
73 [label="x[0] <= 594.0\ngini = 0.497\nsamples = 39\nvalue = [18, 21]"] ;
72 -> 73 ;
74 [label="gini = 0.0\nsamples = 5\nvalue = [0, 5]"] ;
73 -> 74 ;
75 [label="x[0] <= 612.5\ngini = 0.498\nsamples = 34\nvalue = [18, 16]"] ;
73 -> 75 ;
76 [label="gini = 0.0\nsamples = 4\nvalue = [4, 0]"] ;
75 -> 76 ;
77 [label="x[2] <= 409.0\ngini = 0.498\nsamples = 30\nvalue = [14, 16]"] ;
75 -> 77 ;
78 [label="x[2] <= 233.0\ngini = 0.48\nsamples = 20\nvalue = [12, 8]"] ;
77 -> 78 ;
79 [label="x[2] <= 184.0\ngini = 0.32\nsamples = 5\nvalue = [1, 4]"] ;
78 -> 79 ;
80 [label="gini = 0.0\nsamples = 1\nvalue = [1, 0]"] ;
79 -> 80 ;
81 [label="gini = 0.0\nsamples = 4\nvalue = [0, 4]"] ;
79 -> 81 ;
82 [label="x[0] <= 619.0\ngini = 0.391\nsamples = 15\nvalue = [11, 4]"] ;
78 -> 82 ;
83 [label="gini = 0.0\nsamples = 1\nvalue = [0, 1]"] ;
82 -> 83 ;
84 [label="x[1] <= 20.5\ngini = 0.337\nsamples = 14\nvalue = [11, 3]"] ;
82 -> 84 ;
85 [label="x[2] <= 285.5\ngini = 0.49\nsamples = 7\nvalue = [4, 3]"] ;
84 -> 85 ;
86 [label="gini = 0.0\nsamples = 3\nvalue = [3, 0]"] ;
85 -> 86 ;
87 [label="x[3] <= 139.0\ngini = 0.375\nsamples = 4\nvalue = [1, 3]"] ;
85 -> 87 ;
88 [label="x[0] <= 692.5\ngini = 0.5\nsamples = 2\nvalue = [1, 1]"] ;
87 -> 88 ;
89 [label="gini = 0.0\nsamples = 1\nvalue = [1, 0]"] ;
88 -> 89 ;
90 [label="gini = 0.0\nsamples = 1\nvalue = [0, 1]"] ;
88 -> 90 ;
91 [label="gini = 0.0\nsamples = 2\nvalue = [0, 2]"] ;
87 -> 91 ;
92 [label="gini = 0.0\nsamples = 7\nvalue = [7, 0]"] ;
84 -> 92 ;
93 [label="x[0] <= 697.5\ngini = 0.32\nsamples = 10\nvalue = [2, 8]"] ;
77 -> 93 ;
94 [label="x[3] <= 80.5\ngini = 0.198\nsamples = 9\nvalue = [1, 8]"] ;
93 -> 94 ;
95 [label="x[2] <= 441.0\ngini = 0.5\nsamples = 2\nvalue = [1, 1]"] ;
94 -> 95 ;
96 [label="gini = 0.0\nsamples = 1\nvalue = [0, 1]"] ;
95 -> 96 ;
97 [label="gini = 0.0\nsamples = 1\nvalue = [1, 0]"] ;
95 -> 97 ;
98 [label="gini = 0.0\nsamples = 7\nvalue = [0, 7]"] ;
94 -> 98 ;
99 [label="gini = 0.0\nsamples = 1\nvalue = [1, 0]"] ;
93 -> 99 ;
100 [label="x[0] <= 609.0\ngini = 0.444\nsamples = 57\nvalue = [38, 19]"] ;
72 -> 100 ;
101 [label="x[3] <= 365.0\ngini = 0.153\nsamples = 12\nvalue = [11, 1]"] ;
100 -> 101 ;
102 [label="gini = 0.0\nsamples = 8\nvalue = [8, 0]"] ;
101 -> 102 ;
103 [label="x[3] <= 384.5\ngini = 0.375\nsamples = 4\nvalue = [3, 1]"] ;
101 -> 103 ;
104 [label="gini = 0.0\nsamples = 1\nvalue = [0, 1]"] ;
103 -> 104 ;
105 [label="gini = 0.0\nsamples = 3\nvalue = [3, 0]"] ;
103 -> 105 ;
106 [label="x[3] <= 346.0\ngini = 0.48\nsamples = 45\nvalue = [27, 18]"] ;
100 -> 106 ;
107 [label="x[2] <= 253.5\ngini = 0.346\nsamples = 18\nvalue = [14, 4]"] ;
106 -> 107 ;
108 [label="x[1] <= 23.5\ngini = 0.48\nsamples = 5\nvalue = [2, 3]"] ;
107 -> 108 ;
109 [label="x[1] <= 9.0\ngini = 0.444\nsamples = 3\nvalue = [2, 1]"] ;
108 -> 109 ;
110 [label="gini = 0.0\nsamples = 1\nvalue = [0, 1]"] ;
109 -> 110 ;
111 [label="gini = 0.0\nsamples = 2\nvalue = [2, 0]"] ;
109 -> 111 ;
112 [label="gini = 0.0\nsamples = 2\nvalue = [0, 2]"] ;
108 -> 112 ;
113 [label="x[0] <= 640.5\ngini = 0.142\nsamples = 13\nvalue = [12, 1]"] ;
107 -> 113 ;
114 [label="x[3] <= 291.0\ngini = 0.5\nsamples = 2\nvalue = [1, 1]"] ;
113 -> 114 ;
115 [label="gini = 0.0\nsamples = 1\nvalue = [0, 1]"] ;
114 -> 115 ;
116 [label="gini = 0.0\nsamples = 1\nvalue = [1, 0]"] ;
114 -> 116 ;
117 [label="gini = 0.0\nsamples = 11\nvalue = [11, 0]"] ;
113 -> 117 ;
118 [label="x[0] <= 724.0\ngini = 0.499\nsamples = 27\nvalue = [13, 14]"] ;
106 -> 118 ;
119 [label="x[3] <= 359.5\ngini = 0.491\nsamples = 23\nvalue = [13.0, 10.0]"] ;
118 -> 119 ;
120 [label="gini = 0.0\nsamples = 3\nvalue = [0, 3]"] ;
119 -> 120 ;
121 [label="x[2] <= 417.5\ngini = 0.455\nsamples = 20\nvalue = [13, 7]"] ;
119 -> 121 ;
122 [label="x[0] <= 640.0\ngini = 0.492\nsamples = 16\nvalue = [9, 7]"] ;
121 -> 122 ;
123 [label="x[0] <= 616.0\ngini = 0.32\nsamples = 5\nvalue = [4, 1]"] ;
122 -> 123 ;
124 [label="gini = 0.0\nsamples = 1\nvalue = [0, 1]"] ;
123 -> 124 ;
125 [label="gini = 0.0\nsamples = 4\nvalue = [4, 0]"] ;
123 -> 125 ;
126 [label="x[0] <= 683.0\ngini = 0.496\nsamples = 11\nvalue = [5, 6]"] ;
122 -> 126 ;
127 [label="gini = 0.0\nsamples = 4\nvalue = [0, 4]"] ;
126 -> 127 ;
128 [label="x[0] <= 717.5\ngini = 0.408\nsamples = 7\nvalue = [5, 2]"] ;
126 -> 128 ;
129 [label="x[2] <= 205.0\ngini = 0.278\nsamples = 6\nvalue = [5, 1]"] ;
128 -> 129 ;
130 [label="gini = 0.0\nsamples = 1\nvalue = [0, 1]"] ;
129 -> 130 ;
131 [label="gini = 0.0\nsamples = 5\nvalue = [5, 0]"] ;
129 -> 131 ;
132 [label="gini = 0.0\nsamples = 1\nvalue = [0, 1]"] ;
128 -> 132 ;
133 [label="gini = 0.0\nsamples = 4\nvalue = [4, 0]"] ;
121 -> 133 ;
134 [label="gini = 0.0\nsamples = 4\nvalue = [0, 4]"] ;
118 -> 134 ;
135 [label="gini = 0.0\nsamples = 5\nvalue = [0, 5]"] ;
55 -> 135 ;
136 [label="gini = 0.0\nsamples = 6\nvalue = [0, 6]"] ;
52 -> 136 ;
137 [label="x[0] <= 703.5\ngini = 0.441\nsamples = 73\nvalue = [49, 24]"] ;
49 -> 137 ;
138 [label="x[3] <= 555.5\ngini = 0.477\nsamples = 61\nvalue = [37, 24]"] ;
137 -> 138 ;
139 [label="x[2] <= 179.5\ngini = 0.305\nsamples = 16\nvalue = [13, 3]"] ;
138 -> 139 ;
140 [label="gini = 0.0\nsamples = 1\nvalue = [0, 1]"] ;
139 -> 140 ;
141 [label="x[0] <= 530.5\ngini = 0.231\nsamples = 15\nvalue = [13, 2]"] ;
139 -> 141 ;
142 [label="x[2] <= 260.0\ngini = 0.5\nsamples = 2\nvalue = [1, 1]"] ;
141 -> 142 ;
143 [label="gini = 0.0\nsamples = 1\nvalue = [1, 0]"] ;
142 -> 143 ;
144 [label="gini = 0.0\nsamples = 1\nvalue = [0, 1]"] ;
142 -> 144 ;
145 [label="x[2] <= 424.0\ngini = 0.142\nsamples = 13\nvalue = [12, 1]"] ;
141 -> 145 ;
146 [label="gini = 0.0\nsamples = 9\nvalue = [9, 0]"] ;
145 -> 146 ;
147 [label="x[3] <= 526.0\ngini = 0.375\nsamples = 4\nvalue = [3, 1]"] ;
145 -> 147 ;
148 [label="gini = 0.0\nsamples = 1\nvalue = [0, 1]"] ;
147 -> 148 ;
149 [label="gini = 0.0\nsamples = 3\nvalue = [3, 0]"] ;
147 -> 149 ;
150 [label="x[3] <= 583.0\ngini = 0.498\nsamples = 45\nvalue = [24, 21]"] ;
138 -> 150 ;
151 [label="x[1] <= 15.5\ngini = 0.397\nsamples = 11\nvalue = [3, 8]"] ;
150 -> 151 ;
152 [label="x[3] <= 557.5\ngini = 0.375\nsamples = 4\nvalue = [3, 1]"] ;
151 -> 152 ;
153 [label="gini = 0.0\nsamples = 1\nvalue = [0, 1]"] ;
152 -> 153 ;
154 [label="gini = 0.0\nsamples = 3\nvalue = [3, 0]"] ;
152 -> 154 ;
155 [label="gini = 0.0\nsamples = 7\nvalue = [0, 7]"] ;
151 -> 155 ;
156 [label="x[1] <= 31.5\ngini = 0.472\nsamples = 34\nvalue = [21, 13]"] ;
150 -> 156 ;
157 [label="x[3] <= 622.5\ngini = 0.499\nsamples = 27\nvalue = [14, 13]"] ;
156 -> 157 ;
158 [label="x[1] <= 11.0\ngini = 0.346\nsamples = 9\nvalue = [7, 2]"] ;
157 -> 158 ;
159 [label="gini = 0.0\nsamples = 1\nvalue = [0, 1]"] ;
158 -> 159 ;
160 [label="x[2] <= 390.0\ngini = 0.219\nsamples = 8\nvalue = [7, 1]"] ;
158 -> 160 ;
161 [label="gini = 0.0\nsamples = 5\nvalue = [5, 0]"] ;
160 -> 161 ;
162 [label="x[2] <= 453.5\ngini = 0.444\nsamples = 3\nvalue = [2, 1]"] ;
160 -> 162 ;
163 [label="gini = 0.0\nsamples = 1\nvalue = [0, 1]"] ;
162 -> 163 ;
164 [label="gini = 0.0\nsamples = 2\nvalue = [2, 0]"] ;
162 -> 164 ;
165 [label="x[1] <= 16.5\ngini = 0.475\nsamples = 18\nvalue = [7, 11]"] ;
157 -> 165 ;
166 [label="x[0] <= 515.5\ngini = 0.496\nsamples = 11\nvalue = [6, 5]"] ;
165 -> 166 ;
167 [label="gini = 0.0\nsamples = 1\nvalue = [0, 1]"] ;
166 -> 167 ;
168 [label="x[0] <= 598.5\ngini = 0.48\nsamples = 10\nvalue = [6, 4]"] ;
166 -> 168 ;
169 [label="x[0] <= 537.0\ngini = 0.32\nsamples = 5\nvalue = [4, 1]"] ;
168 -> 169 ;
170 [label="x[1] <= 9.5\ngini = 0.5\nsamples = 2\nvalue = [1, 1]"] ;
169 -> 170 ;
171 [label="gini = 0.0\nsamples = 1\nvalue = [1, 0]"] ;
170 -> 171 ;
172 [label="gini = 0.0\nsamples = 1\nvalue = [0, 1]"] ;
170 -> 172 ;
173 [label="gini = 0.0\nsamples = 3\nvalue = [3, 0]"] ;
169 -> 173 ;
174 [label="x[1] <= 12.0\ngini = 0.48\nsamples = 5\nvalue = [2, 3]"] ;
168 -> 174 ;
175 [label="gini = 0.0\nsamples = 2\nvalue = [0, 2]"] ;
174 -> 175 ;
176 [label="x[0] <= 621.0\ngini = 0.444\nsamples = 3\nvalue = [2, 1]"] ;
174 -> 176 ;
177 [label="gini = 0.0\nsamples = 1\nvalue = [0, 1]"] ;
176 -> 177 ;
178 [label="gini = 0.0\nsamples = 2\nvalue = [2, 0]"] ;
176 -> 178 ;
179 [label="x[2] <= 248.0\ngini = 0.245\nsamples = 7\nvalue = [1, 6]"] ;
165 -> 179 ;
180 [label="x[0] <= 616.0\ngini = 0.5\nsamples = 2\nvalue = [1, 1]"] ;
179 -> 180 ;
181 [label="gini = 0.0\nsamples = 1\nvalue = [0, 1]"] ;
180 -> 181 ;
182 [label="gini = 0.0\nsamples = 1\nvalue = [1, 0]"] ;
180 -> 182 ;
183 [label="gini = 0.0\nsamples = 5\nvalue = [0, 5]"] ;
179 -> 183 ;
184 [label="gini = 0.0\nsamples = 7\nvalue = [7, 0]"] ;
156 -> 184 ;
185 [label="gini = 0.0\nsamples = 12\nvalue = [12, 0]"] ;
137 -> 185 ;
186 [label="x[2] <= 993.0\ngini = 0.493\nsamples = 382\nvalue = [169, 213]"] ;
46 -> 186 ;
187 [label="x[2] <= 688.5\ngini = 0.495\nsamples = 377\nvalue = [169, 208]"] ;
186 -> 187 ;
188 [label="x[3] <= 688.0\ngini = 0.472\nsamples = 149\nvalue = [57, 92]"] ;
187 -> 188 ;
189 [label="x[0] <= 582.5\ngini = 0.465\nsamples = 144\nvalue = [53, 91]"] ;
188 -> 189 ;
190 [label="x[0] <= 562.5\ngini = 0.406\nsamples = 53\nvalue = [15, 38]"] ;
189 -> 190 ;
191 [label="x[0] <= 557.0\ngini = 0.449\nsamples = 44\nvalue = [15.0, 29.0]"] ;
190 -> 191 ;
192 [label="x[2] <= 667.0\ngini = 0.427\nsamples = 42\nvalue = [13, 29]"] ;
191 -> 192 ;
193 [label="x[0] <= 505.0\ngini = 0.456\nsamples = 37\nvalue = [13, 24]"] ;
192 -> 193 ;
194 [label="gini = 0.0\nsamples = 2\nvalue = [2, 0]"] ;
193 -> 194 ;
195 [label="x[3] <= 64.0\ngini = 0.431\nsamples = 35\nvalue = [11, 24]"] ;
193 -> 195 ;
196 [label="gini = 0.0\nsamples = 1\nvalue = [1, 0]"] ;
195 -> 196 ;
197 [label="x[3] <= 234.0\ngini = 0.415\nsamples = 34\nvalue = [10, 24]"] ;
195 -> 197 ;
198 [label="gini = 0.0\nsamples = 6\nvalue = [0, 6]"] ;
197 -> 198 ;
199 [label="x[3] <= 495.5\ngini = 0.459\nsamples = 28\nvalue = [10, 18]"] ;
197 -> 199 ;
200 [label="x[2] <= 523.0\ngini = 0.495\nsamples = 20\nvalue = [9, 11]"] ;
199 -> 200 ;
201 [label="gini = 0.0\nsamples = 2\nvalue = [2, 0]"] ;
200 -> 201 ;
202 [label="x[2] <= 600.5\ngini = 0.475\nsamples = 18\nvalue = [7, 11]"] ;
200 -> 202 ;
203 [label="x[1] <= 30.0\ngini = 0.375\nsamples = 12\nvalue = [3, 9]"] ;
202 -> 203 ;
204 [label="x[3] <= 267.5\ngini = 0.18\nsamples = 10\nvalue = [1, 9]"] ;
203 -> 204 ;
205 [label="x[1] <= 20.0\ngini = 0.444\nsamples = 3\nvalue = [1, 2]"] ;
204 -> 205 ;
206 [label="gini = 0.0\nsamples = 1\nvalue = [1, 0]"] ;
205 -> 206 ;
207 [label="gini = 0.0\nsamples = 2\nvalue = [0, 2]"] ;
205 -> 207 ;
208 [label="gini = 0.0\nsamples = 7\nvalue = [0, 7]"] ;
204 -> 208 ;
209 [label="gini = 0.0\nsamples = 2\nvalue = [2, 0]"] ;
203 -> 209 ;
210 [label="x[2] <= 631.5\ngini = 0.444\nsamples = 6\nvalue = [4, 2]"] ;
202 -> 210 ;
211 [label="gini = 0.0\nsamples = 3\nvalue = [3, 0]"] ;
210 -> 211 ;
212 [label="x[0] <= 546.5\ngini = 0.444\nsamples = 3\nvalue = [1, 2]"] ;
210 -> 212 ;
213 [label="gini = 0.0\nsamples = 2\nvalue = [0, 2]"] ;
212 -> 213 ;
214 [label="gini = 0.0\nsamples = 1\nvalue = [1, 0]"] ;
212 -> 214 ;
215 [label="x[1] <= 8.0\ngini = 0.219\nsamples = 8\nvalue = [1, 7]"] ;
199 -> 215 ;
216 [label="gini = 0.0\nsamples = 1\nvalue = [1, 0]"] ;
215 -> 216 ;
217 [label="gini = 0.0\nsamples = 7\nvalue = [0, 7]"] ;
215 -> 217 ;
218 [label="gini = 0.0\nsamples = 5\nvalue = [0, 5]"] ;
192 -> 218 ;
219 [label="gini = 0.0\nsamples = 2\nvalue = [2, 0]"] ;
191 -> 219 ;
220 [label="gini = 0.0\nsamples = 9\nvalue = [0, 9]"] ;
190 -> 220 ;
221 [label="x[0] <= 621.5\ngini = 0.486\nsamples = 91\nvalue = [38.0, 53.0]"] ;
189 -> 221 ;
222 [label="x[3] <= 254.5\ngini = 0.43\nsamples = 16\nvalue = [11, 5]"] ;
221 -> 222 ;
223 [label="gini = 0.0\nsamples = 4\nvalue = [4, 0]"] ;
222 -> 223 ;
224 [label="x[1] <= 24.5\ngini = 0.486\nsamples = 12\nvalue = [7, 5]"] ;
222 -> 224 ;
225 [label="x[1] <= 16.5\ngini = 0.5\nsamples = 10\nvalue = [5, 5]"] ;
224 -> 225 ;
226 [label="x[1] <= 4.5\ngini = 0.32\nsamples = 5\nvalue = [4, 1]"] ;
225 -> 226 ;
227 [label="gini = 0.0\nsamples = 1\nvalue = [0, 1]"] ;
226 -> 227 ;
228 [label="gini = 0.0\nsamples = 4\nvalue = [4, 0]"] ;
226 -> 228 ;
229 [label="x[1] <= 22.0\ngini = 0.32\nsamples = 5\nvalue = [1, 4]"] ;
225 -> 229 ;
230 [label="gini = 0.0\nsamples = 3\nvalue = [0, 3]"] ;
229 -> 230 ;
231 [label="x[3] <= 352.0\ngini = 0.5\nsamples = 2\nvalue = [1, 1]"] ;
229 -> 231 ;
232 [label="gini = 0.0\nsamples = 1\nvalue = [0, 1]"] ;
231 -> 232 ;
233 [label="gini = 0.0\nsamples = 1\nvalue = [1, 0]"] ;
231 -> 233 ;
234 [label="gini = 0.0\nsamples = 2\nvalue = [2, 0]"] ;
224 -> 234 ;
235 [label="x[2] <= 677.5\ngini = 0.461\nsamples = 75\nvalue = [27, 48]"] ;
221 -> 235 ;
236 [label="x[2] <= 645.0\ngini = 0.45\nsamples = 73\nvalue = [25, 48]"] ;
235 -> 236 ;
237 [label="x[2] <= 621.5\ngini = 0.472\nsamples = 63\nvalue = [24, 39]"] ;
236 -> 237 ;
238 [label="x[3] <= 456.5\ngini = 0.436\nsamples = 53\nvalue = [17, 36]"] ;
237 -> 238 ;
239 [label="x[1] <= 19.0\ngini = 0.327\nsamples = 34\nvalue = [7, 27]"] ;
238 -> 239 ;
240 [label="x[0] <= 686.0\ngini = 0.48\nsamples = 15\nvalue = [6, 9]"] ;
239 -> 240 ;
241 [label="x[2] <= 498.5\ngini = 0.219\nsamples = 8\nvalue = [1, 7]"] ;
240 -> 241 ;
242 [label="gini = 0.0\nsamples = 1\nvalue = [1, 0]"] ;
241 -> 242 ;
243 [label="gini = 0.0\nsamples = 7\nvalue = [0, 7]"] ;
241 -> 243 ;
244 [label="x[3] <= 283.5\ngini = 0.408\nsamples = 7\nvalue = [5, 2]"] ;
240 -> 244 ;
245 [label="gini = 0.0\nsamples = 4\nvalue = [4, 0]"] ;
244 -> 245 ;
246 [label="x[2] <= 509.5\ngini = 0.444\nsamples = 3\nvalue = [1, 2]"] ;
244 -> 246 ;
247 [label="gini = 0.0\nsamples = 1\nvalue = [1, 0]"] ;
246 -> 247 ;
248 [label="gini = 0.0\nsamples = 2\nvalue = [0, 2]"] ;
246 -> 248 ;
249 [label="x[0] <= 735.5\ngini = 0.1\nsamples = 19\nvalue = [1, 18]"] ;
239 -> 249 ;
250 [label="gini = 0.0\nsamples = 15\nvalue = [0, 15]"] ;
249 -> 250 ;
251 [label="x[2] <= 536.0\ngini = 0.375\nsamples = 4\nvalue = [1, 3]"] ;
249 -> 251 ;
252 [label="gini = 0.0\nsamples = 3\nvalue = [0, 3]"] ;
251 -> 252 ;
253 [label="gini = 0.0\nsamples = 1\nvalue = [1, 0]"] ;
251 -> 253 ;
254 [label="x[2] <= 551.5\ngini = 0.499\nsamples = 19\nvalue = [10, 9]"] ;
238 -> 254 ;
255 [label="x[1] <= 40.0\ngini = 0.42\nsamples = 10\nvalue = [7, 3]"] ;
254 -> 255 ;
256 [label="x[1] <= 4.0\ngini = 0.219\nsamples = 8\nvalue = [7, 1]"] ;
255 -> 256 ;
257 [label="gini = 0.0\nsamples = 1\nvalue = [0, 1]"] ;
256 -> 257 ;
258 [label="gini = 0.0\nsamples = 7\nvalue = [7, 0]"] ;
256 -> 258 ;
259 [label="gini = 0.0\nsamples = 2\nvalue = [0, 2]"] ;
255 -> 259 ;
260 [label="x[0] <= 743.5\ngini = 0.444\nsamples = 9\nvalue = [3, 6]"] ;
254 -> 260 ;
261 [label="x[1] <= 37.5\ngini = 0.375\nsamples = 8\nvalue = [2, 6]"] ;
260 -> 261 ;
262 [label="x[1] <= 16.0\ngini = 0.245\nsamples = 7\nvalue = [1, 6]"] ;
261 -> 262 ;
263 [label="x[1] <= 8.0\ngini = 0.5\nsamples = 2\nvalue = [1, 1]"] ;
262 -> 263 ;
264 [label="gini = 0.0\nsamples = 1\nvalue = [0, 1]"] ;
263 -> 264 ;
265 [label="gini = 0.0\nsamples = 1\nvalue = [1, 0]"] ;
263 -> 265 ;
266 [label="gini = 0.0\nsamples = 5\nvalue = [0, 5]"] ;
262 -> 266 ;
267 [label="gini = 0.0\nsamples = 1\nvalue = [1, 0]"] ;
261 -> 267 ;
268 [label="gini = 0.0\nsamples = 1\nvalue = [1, 0]"] ;
260 -> 268 ;
269 [label="x[0] <= 680.0\ngini = 0.42\nsamples = 10\nvalue = [7, 3]"] ;
237 -> 269 ;
270 [label="gini = 0.0\nsamples = 4\nvalue = [4, 0]"] ;
269 -> 270 ;
271 [label="x[2] <= 629.5\ngini = 0.5\nsamples = 6\nvalue = [3, 3]"] ;
269 -> 271 ;
272 [label="gini = 0.0\nsamples = 3\nvalue = [0, 3]"] ;
271 -> 272 ;
273 [label="gini = 0.0\nsamples = 3\nvalue = [3, 0]"] ;
271 -> 273 ;
274 [label="x[1] <= 33.5\ngini = 0.18\nsamples = 10\nvalue = [1, 9]"] ;
236 -> 274 ;
275 [label="gini = 0.0\nsamples = 7\nvalue = [0, 7]"] ;
274 -> 275 ;
276 [label="x[0] <= 721.0\ngini = 0.444\nsamples = 3\nvalue = [1, 2]"] ;
274 -> 276 ;
277 [label="gini = 0.0\nsamples = 2\nvalue = [0, 2]"] ;
276 -> 277 ;
278 [label="gini = 0.0\nsamples = 1\nvalue = [1, 0]"] ;
276 -> 278 ;
279 [label="gini = 0.0\nsamples = 2\nvalue = [2, 0]"] ;
235 -> 279 ;
280 [label="x[1] <= 28.0\ngini = 0.32\nsamples = 5\nvalue = [4, 1]"] ;
188 -> 280 ;
281 [label="gini = 0.0\nsamples = 3\nvalue = [3, 0]"] ;
280 -> 281 ;
282 [label="x[3] <= 696.5\ngini = 0.5\nsamples = 2\nvalue = [1, 1]"] ;
280 -> 282 ;
283 [label="gini = 0.0\nsamples = 1\nvalue = [1, 0]"] ;
282 -> 283 ;
284 [label="gini = 0.0\nsamples = 1\nvalue = [0, 1]"] ;
282 -> 284 ;
285 [label="x[0] <= 703.0\ngini = 0.5\nsamples = 228\nvalue = [112, 116]"] ;
187 -> 285 ;
286 [label="x[0] <= 507.5\ngini = 0.498\nsamples = 176\nvalue = [93, 83]"] ;
285 -> 286 ;
287 [label="gini = 0.0\nsamples = 4\nvalue = [0, 4]"] ;
286 -> 287 ;
288 [label="x[0] <= 512.0\ngini = 0.497\nsamples = 172\nvalue = [93, 79]"] ;
286 -> 288 ;
289 [label="gini = 0.0\nsamples = 5\nvalue = [5, 0]"] ;
288 -> 289 ;
290 [label="x[0] <= 520.5\ngini = 0.499\nsamples = 167\nvalue = [88.0, 79.0]"] ;
288 -> 290 ;
291 [label="x[1] <= 8.0\ngini = 0.219\nsamples = 8\nvalue = [1, 7]"] ;
290 -> 291 ;
292 [label="gini = 0.0\nsamples = 1\nvalue = [1, 0]"] ;
291 -> 292 ;
293 [label="gini = 0.0\nsamples = 7\nvalue = [0, 7]"] ;
291 -> 293 ;
294 [label="x[3] <= 665.0\ngini = 0.496\nsamples = 159\nvalue = [87, 72]"] ;
290 -> 294 ;
295 [label="x[0] <= 575.0\ngini = 0.492\nsamples = 149\nvalue = [84, 65]"] ;
294 -> 295 ;
296 [label="x[0] <= 550.5\ngini = 0.439\nsamples = 40\nvalue = [27, 13]"] ;
295 -> 296 ;
297 [label="x[3] <= 128.0\ngini = 0.499\nsamples = 21\nvalue = [10, 11]"] ;
296 -> 297 ;
298 [label="gini = 0.0\nsamples = 6\nvalue = [0, 6]"] ;
297 -> 298 ;
299 [label="x[2] <= 906.0\ngini = 0.444\nsamples = 15\nvalue = [10, 5]"] ;
297 -> 299 ;
300 [label="x[2] <= 855.0\ngini = 0.496\nsamples = 11\nvalue = [6, 5]"] ;
299 -> 300 ;
301 [label="x[1] <= 20.5\ngini = 0.278\nsamples = 6\nvalue = [5, 1]"] ;
300 -> 301 ;
302 [label="x[2] <= 738.0\ngini = 0.5\nsamples = 2\nvalue = [1, 1]"] ;
301 -> 302 ;
303 [label="gini = 0.0\nsamples = 1\nvalue = [1, 0]"] ;
302 -> 303 ;
304 [label="gini = 0.0\nsamples = 1\nvalue = [0, 1]"] ;
302 -> 304 ;
305 [label="gini = 0.0\nsamples = 4\nvalue = [4, 0]"] ;
301 -> 305 ;
306 [label="x[3] <= 538.0\ngini = 0.32\nsamples = 5\nvalue = [1, 4]"] ;
300 -> 306 ;
307 [label="gini = 0.0\nsamples = 4\nvalue = [0, 4]"] ;
306 -> 307 ;
308 [label="gini = 0.0\nsamples = 1\nvalue = [1, 0]"] ;
306 -> 308 ;
309 [label="gini = 0.0\nsamples = 4\nvalue = [4, 0]"] ;
299 -> 309 ;
310 [label="x[1] <= 39.0\ngini = 0.188\nsamples = 19\nvalue = [17, 2]"] ;
296 -> 310 ;
311 [label="x[3] <= 53.0\ngini = 0.105\nsamples = 18\nvalue = [17, 1]"] ;
310 -> 311 ;
312 [label="x[1] <= 12.0\ngini = 0.375\nsamples = 4\nvalue = [3, 1]"] ;
311 -> 312 ;
313 [label="gini = 0.0\nsamples = 1\nvalue = [0, 1]"] ;
312 -> 313 ;
314 [label="gini = 0.0\nsamples = 3\nvalue = [3, 0]"] ;
312 -> 314 ;
315 [label="gini = 0.0\nsamples = 14\nvalue = [14, 0]"] ;
311 -> 315 ;
316 [label="gini = 0.0\nsamples = 1\nvalue = [0, 1]"] ;
310 -> 316 ;
317 [label="x[0] <= 650.0\ngini = 0.499\nsamples = 109\nvalue = [57, 52]"] ;
295 -> 317 ;
318 [label="x[3] <= 415.0\ngini = 0.494\nsamples = 63\nvalue = [28, 35]"] ;
317 -> 318 ;
319 [label="x[2] <= 695.0\ngini = 0.464\nsamples = 41\nvalue = [15, 26]"] ;
318 -> 319 ;
320 [label="gini = 0.0\nsamples = 2\nvalue = [2, 0]"] ;
319 -> 320 ;
321 [label="x[2] <= 758.0\ngini = 0.444\nsamples = 39\nvalue = [13, 26]"] ;
319 -> 321 ;
322 [label="gini = 0.0\nsamples = 10\nvalue = [0, 10]"] ;
321 -> 322 ;
323 [label="x[2] <= 953.0\ngini = 0.495\nsamples = 29\nvalue = [13, 16]"] ;
321 -> 323 ;
324 [label="x[2] <= 934.0\ngini = 0.499\nsamples = 27\nvalue = [13, 14]"] ;
323 -> 324 ;
325 [label="x[3] <= 376.5\ngini = 0.493\nsamples = 25\nvalue = [11.0, 14.0]"] ;
324 -> 325 ;
326 [label="x[3] <= 193.5\ngini = 0.499\nsamples = 21\nvalue = [11, 10]"] ;
325 -> 326 ;
327 [label="x[2] <= 921.0\ngini = 0.375\nsamples = 8\nvalue = [2, 6]"] ;
326 -> 327 ;
328 [label="x[3] <= 139.0\ngini = 0.245\nsamples = 7\nvalue = [1, 6]"] ;
327 -> 328 ;
329 [label="gini = 0.0\nsamples = 4\nvalue = [0, 4]"] ;
328 -> 329 ;
330 [label="x[1] <= 22.0\ngini = 0.444\nsamples = 3\nvalue = [1, 2]"] ;
328 -> 330 ;
331 [label="gini = 0.0\nsamples = 2\nvalue = [0, 2]"] ;
330 -> 331 ;
332 [label="gini = 0.0\nsamples = 1\nvalue = [1, 0]"] ;
330 -> 332 ;
333 [label="gini = 0.0\nsamples = 1\nvalue = [1, 0]"] ;
327 -> 333 ;
334 [label="x[0] <= 640.5\ngini = 0.426\nsamples = 13\nvalue = [9, 4]"] ;
326 -> 334 ;
335 [label="x[0] <= 604.0\ngini = 0.219\nsamples = 8\nvalue = [7, 1]"] ;
334 -> 335 ;
336 [label="x[1] <= 26.5\ngini = 0.444\nsamples = 3\nvalue = [2, 1]"] ;
335 -> 336 ;
337 [label="gini = 0.0\nsamples = 1\nvalue = [0, 1]"] ;
336 -> 337 ;
338 [label="gini = 0.0\nsamples = 2\nvalue = [2, 0]"] ;
336 -> 338 ;
339 [label="gini = 0.0\nsamples = 5\nvalue = [5, 0]"] ;
335 -> 339 ;
340 [label="x[2] <= 824.0\ngini = 0.48\nsamples = 5\nvalue = [2, 3]"] ;
334 -> 340 ;
341 [label="gini = 0.0\nsamples = 2\nvalue = [0, 2]"] ;
340 -> 341 ;
342 [label="x[1] <= 22.0\ngini = 0.444\nsamples = 3\nvalue = [2, 1]"] ;
340 -> 342 ;
343 [label="gini = 0.0\nsamples = 1\nvalue = [0, 1]"] ;
342 -> 343 ;
344 [label="gini = 0.0\nsamples = 2\nvalue = [2, 0]"] ;
342 -> 344 ;
345 [label="gini = 0.0\nsamples = 4\nvalue = [0, 4]"] ;
325 -> 345 ;
346 [label="gini = 0.0\nsamples = 2\nvalue = [2, 0]"] ;
324 -> 346 ;
347 [label="gini = 0.0\nsamples = 2\nvalue = [0, 2]"] ;
323 -> 347 ;
348 [label="x[3] <= 551.0\ngini = 0.483\nsamples = 22\nvalue = [13, 9]"] ;
318 -> 348 ;
349 [label="x[2] <= 868.5\ngini = 0.26\nsamples = 13\nvalue = [11, 2]"] ;
348 -> 349 ;
350 [label="x[0] <= 637.5\ngini = 0.153\nsamples = 12\nvalue = [11, 1]"] ;
349 -> 350 ;
351 [label="gini = 0.0\nsamples = 10\nvalue = [10, 0]"] ;
350 -> 351 ;
352 [label="x[3] <= 524.0\ngini = 0.5\nsamples = 2\nvalue = [1, 1]"] ;
350 -> 352 ;
353 [label="gini = 0.0\nsamples = 1\nvalue = [1, 0]"] ;
352 -> 353 ;
354 [label="gini = 0.0\nsamples = 1\nvalue = [0, 1]"] ;
352 -> 354 ;
355 [label="gini = 0.0\nsamples = 1\nvalue = [0, 1]"] ;
349 -> 355 ;
356 [label="x[1] <= 34.0\ngini = 0.346\nsamples = 9\nvalue = [2, 7]"] ;
348 -> 356 ;
357 [label="gini = 0.0\nsamples = 6\nvalue = [0, 6]"] ;
356 -> 357 ;
358 [label="x[3] <= 570.0\ngini = 0.444\nsamples = 3\nvalue = [2, 1]"] ;
356 -> 358 ;
359 [label="gini = 0.0\nsamples = 1\nvalue = [0, 1]"] ;
358 -> 359 ;
360 [label="gini = 0.0\nsamples = 2\nvalue = [2, 0]"] ;
358 -> 360 ;
361 [label="x[1] <= 22.5\ngini = 0.466\nsamples = 46\nvalue = [29, 17]"] ;
317 -> 361 ;
362 [label="x[2] <= 752.0\ngini = 0.48\nsamples = 20\nvalue = [8, 12]"] ;
361 -> 362 ;
363 [label="x[0] <= 671.0\ngini = 0.278\nsamples = 6\nvalue = [5, 1]"] ;
362 -> 363 ;
364 [label="gini = 0.0\nsamples = 4\nvalue = [4, 0]"] ;
363 -> 364 ;
365 [label="x[0] <= 688.0\ngini = 0.5\nsamples = 2\nvalue = [1, 1]"] ;
363 -> 365 ;
366 [label="gini = 0.0\nsamples = 1\nvalue = [0, 1]"] ;
365 -> 366 ;
367 [label="gini = 0.0\nsamples = 1\nvalue = [1, 0]"] ;
365 -> 367 ;
368 [label="x[0] <= 655.5\ngini = 0.337\nsamples = 14\nvalue = [3, 11]"] ;
362 -> 368 ;
369 [label="gini = 0.0\nsamples = 2\nvalue = [2, 0]"] ;
368 -> 369 ;
370 [label="x[3] <= 92.5\ngini = 0.153\nsamples = 12\nvalue = [1, 11]"] ;
368 -> 370 ;
371 [label="gini = 0.0\nsamples = 1\nvalue = [1, 0]"] ;
370 -> 371 ;
372 [label="gini = 0.0\nsamples = 11\nvalue = [0, 11]"] ;
370 -> 372 ;
373 [label="x[1] <= 35.5\ngini = 0.311\nsamples = 26\nvalue = [21, 5]"] ;
361 -> 373 ;
374 [label="x[3] <= 159.5\ngini = 0.111\nsamples = 17\nvalue = [16, 1]"] ;
373 -> 374 ;
375 [label="x[1] <= 28.0\ngini = 0.375\nsamples = 4\nvalue = [3, 1]"] ;
374 -> 375 ;
376 [label="gini = 0.0\nsamples = 1\nvalue = [0, 1]"] ;
375 -> 376 ;
377 [label="gini = 0.0\nsamples = 3\nvalue = [3, 0]"] ;
375 -> 377 ;
378 [label="gini = 0.0\nsamples = 13\nvalue = [13, 0]"] ;
374 -> 378 ;
379 [label="x[1] <= 36.5\ngini = 0.494\nsamples = 9\nvalue = [5, 4]"] ;
373 -> 379 ;
380 [label="gini = 0.0\nsamples = 2\nvalue = [0, 2]"] ;
379 -> 380 ;
381 [label="x[3] <= 416.0\ngini = 0.408\nsamples = 7\nvalue = [5, 2]"] ;
379 -> 381 ;
382 [label="x[0] <= 696.5\ngini = 0.48\nsamples = 5\nvalue = [3, 2]"] ;
381 -> 382 ;
383 [label="x[2] <= 780.5\ngini = 0.444\nsamples = 3\nvalue = [1, 2]"] ;
382 -> 383 ;
384 [label="gini = 0.0\nsamples = 1\nvalue = [1, 0]"] ;
383 -> 384 ;
385 [label="gini = 0.0\nsamples = 2\nvalue = [0, 2]"] ;
383 -> 385 ;
386 [label="gini = 0.0\nsamples = 2\nvalue = [2, 0]"] ;
382 -> 386 ;
387 [label="gini = 0.0\nsamples = 2\nvalue = [2, 0]"] ;
381 -> 387 ;
388 [label="x[3] <= 678.5\ngini = 0.42\nsamples = 10\nvalue = [3, 7]"] ;
294 -> 388 ;
389 [label="gini = 0.0\nsamples = 4\nvalue = [0, 4]"] ;
388 -> 389 ;
390 [label="x[0] <= 611.0\ngini = 0.5\nsamples = 6\nvalue = [3, 3]"] ;
388 -> 390 ;
391 [label="gini = 0.0\nsamples = 1\nvalue = [1, 0]"] ;
390 -> 391 ;
392 [label="x[3] <= 680.5\ngini = 0.48\nsamples = 5\nvalue = [2, 3]"] ;
390 -> 392 ;
393 [label="gini = 0.0\nsamples = 1\nvalue = [1, 0]"] ;
392 -> 393 ;
394 [label="x[0] <= 696.5\ngini = 0.375\nsamples = 4\nvalue = [1, 3]"] ;
392 -> 394 ;
395 [label="gini = 0.0\nsamples = 3\nvalue = [0, 3]"] ;
394 -> 395 ;
396 [label="gini = 0.0\nsamples = 1\nvalue = [1, 0]"] ;
394 -> 396 ;
397 [label="x[0] <= 743.5\ngini = 0.464\nsamples = 52\nvalue = [19, 33]"] ;
285 -> 397 ;
398 [label="x[3] <= 427.5\ngini = 0.405\nsamples = 39\nvalue = [11, 28]"] ;
397 -> 398 ;
399 [label="x[2] <= 831.0\ngini = 0.236\nsamples = 22\nvalue = [3, 19]"] ;
398 -> 399 ;
400 [label="x[3] <= 308.5\ngini = 0.355\nsamples = 13\nvalue = [3, 10]"] ;
399 -> 400 ;
401 [label="x[0] <= 724.0\ngini = 0.5\nsamples = 6\nvalue = [3, 3]"] ;
400 -> 401 ;
402 [label="gini = 0.0\nsamples = 2\nvalue = [2, 0]"] ;
401 -> 402 ;
403 [label="x[1] <= 27.5\ngini = 0.375\nsamples = 4\nvalue = [1, 3]"] ;
401 -> 403 ;
404 [label="gini = 0.0\nsamples = 2\nvalue = [0, 2]"] ;
403 -> 404 ;
405 [label="x[1] <= 38.5\ngini = 0.5\nsamples = 2\nvalue = [1, 1]"] ;
403 -> 405 ;
406 [label="gini = 0.0\nsamples = 1\nvalue = [1, 0]"] ;
405 -> 406 ;
407 [label="gini = 0.0\nsamples = 1\nvalue = [0, 1]"] ;
405 -> 407 ;
408 [label="gini = 0.0\nsamples = 7\nvalue = [0, 7]"] ;
400 -> 408 ;
409 [label="gini = 0.0\nsamples = 9\nvalue = [0, 9]"] ;
399 -> 409 ;
410 [label="x[3] <= 528.5\ngini = 0.498\nsamples = 17\nvalue = [8, 9]"] ;
398 -> 410 ;
411 [label="gini = 0.0\nsamples = 5\nvalue = [5, 0]"] ;
410 -> 411 ;
412 [label="x[2] <= 782.5\ngini = 0.375\nsamples = 12\nvalue = [3, 9]"] ;
410 -> 412 ;
413 [label="x[1] <= 9.5\ngini = 0.5\nsamples = 6\nvalue = [3, 3]"] ;
412 -> 413 ;
414 [label="gini = 0.0\nsamples = 2\nvalue = [0, 2]"] ;
413 -> 414 ;
415 [label="x[3] <= 613.0\ngini = 0.375\nsamples = 4\nvalue = [3, 1]"] ;
413 -> 415 ;
416 [label="gini = 0.0\nsamples = 2\nvalue = [2, 0]"] ;
415 -> 416 ;
417 [label="x[0] <= 728.0\ngini = 0.5\nsamples = 2\nvalue = [1, 1]"] ;
415 -> 417 ;
418 [label="gini = 0.0\nsamples = 1\nvalue = [0, 1]"] ;
417 -> 418 ;
419 [label="gini = 0.0\nsamples = 1\nvalue = [1, 0]"] ;
417 -> 419 ;
420 [label="gini = 0.0\nsamples = 6\nvalue = [0, 6]"] ;
412 -> 420 ;
421 [label="x[3] <= 349.0\ngini = 0.473\nsamples = 13\nvalue = [8, 5]"] ;
397 -> 421 ;
422 [label="gini = 0.0\nsamples = 5\nvalue = [5, 0]"] ;
421 -> 422 ;
423 [label="x[2] <= 699.0\ngini = 0.469\nsamples = 8\nvalue = [3, 5]"] ;
421 -> 423 ;
424 [label="gini = 0.0\nsamples = 2\nvalue = [2, 0]"] ;
423 -> 424 ;
425 [label="x[2] <= 925.0\ngini = 0.278\nsamples = 6\nvalue = [1, 5]"] ;
423 -> 425 ;
426 [label="gini = 0.0\nsamples = 5\nvalue = [0, 5]"] ;
425 -> 426 ;
427 [label="gini = 0.0\nsamples = 1\nvalue = [1, 0]"] ;
425 -> 427 ;
428 [label="gini = 0.0\nsamples = 5\nvalue = [0, 5]"] ;
186 -> 428 ;
429 [label="x[1] <= 121.5\ngini = 0.499\nsamples = 3767\nvalue = [1979, 1788]"] ;
45 -> 429 ;
430 [label="x[2] <= 527.0\ngini = 0.495\nsamples = 1141\nvalue = [629, 512]"] ;
429 -> 430 ;
431 [label="x[1] <= 102.5\ngini = 0.5\nsamples = 480\nvalue = [242, 238]"] ;
430 -> 431 ;
432 [label="x[0] <= 650.5\ngini = 0.499\nsamples = 371\nvalue = [177, 194]"] ;
431 -> 432 ;
433 [label="x[0] <= 642.5\ngini = 0.489\nsamples = 214\nvalue = [91, 123]"] ;
432 -> 433 ;
434 [label="x[0] <= 638.0\ngini = 0.493\nsamples = 207\nvalue = [91.0, 116.0]"] ;
433 -> 434 ;
435 [label="x[3] <= 671.0\ngini = 0.489\nsamples = 200\nvalue = [85.0, 115.0]"] ;
434 -> 435 ;
436 [label="x[3] <= 593.0\ngini = 0.483\nsamples = 191\nvalue = [78, 113]"] ;
435 -> 436 ;
437 [label="x[0] <= 575.5\ngini = 0.493\nsamples = 168\nvalue = [74, 94]"] ;
436 -> 437 ;
438 [label="x[2] <= 298.0\ngini = 0.5\nsamples = 97\nvalue = [50.0, 47.0]"] ;
437 -> 438 ;
439 [label="x[3] <= 380.5\ngini = 0.463\nsamples = 33\nvalue = [12, 21]"] ;
438 -> 439 ;
440 [label="x[1] <= 92.5\ngini = 0.5\nsamples = 24\nvalue = [12, 12]"] ;
439 -> 440 ;
441 [label="x[0] <= 571.5\ngini = 0.49\nsamples = 21\nvalue = [12, 9]"] ;
440 -> 441 ;
442 [label="x[0] <= 546.5\ngini = 0.5\nsamples = 18\nvalue = [9, 9]"] ;
441 -> 442 ;
443 [label="x[0] <= 525.0\ngini = 0.444\nsamples = 12\nvalue = [8, 4]"] ;
442 -> 443 ;
444 [label="x[0] <= 518.5\ngini = 0.5\nsamples = 8\nvalue = [4, 4]"] ;
443 -> 444 ;
445 [label="x[1] <= 48.0\ngini = 0.444\nsamples = 6\nvalue = [4, 2]"] ;
444 -> 445 ;
446 [label="gini = 0.0\nsamples = 1\nvalue = [0, 1]"] ;
445 -> 446 ;
447 [label="x[1] <= 66.0\ngini = 0.32\nsamples = 5\nvalue = [4, 1]"] ;
445 -> 447 ;
448 [label="gini = 0.0\nsamples = 3\nvalue = [3, 0]"] ;
447 -> 448 ;
449 [label="x[0] <= 503.5\ngini = 0.5\nsamples = 2\nvalue = [1, 1]"] ;
447 -> 449 ;
450 [label="gini = 0.0\nsamples = 1\nvalue = [1, 0]"] ;
449 -> 450 ;
451 [label="gini = 0.0\nsamples = 1\nvalue = [0, 1]"] ;
449 -> 451 ;
452 [label="gini = 0.0\nsamples = 2\nvalue = [0, 2]"] ;
444 -> 452 ;
453 [label="gini = 0.0\nsamples = 4\nvalue = [4, 0]"] ;
443 -> 453 ;
454 [label="x[1] <= 91.0\ngini = 0.278\nsamples = 6\nvalue = [1, 5]"] ;
442 -> 454 ;
455 [label="gini = 0.0\nsamples = 5\nvalue = [0, 5]"] ;
454 -> 455 ;
456 [label="gini = 0.0\nsamples = 1\nvalue = [1, 0]"] ;
454 -> 456 ;
457 [label="gini = 0.0\nsamples = 3\nvalue = [3, 0]"] ;
441 -> 457 ;
458 [label="gini = 0.0\nsamples = 3\nvalue = [0, 3]"] ;
440 -> 458 ;
459 [label="gini = 0.0\nsamples = 9\nvalue = [0, 9]"] ;
439 -> 459 ;
460 [label="x[0] <= 550.5\ngini = 0.482\nsamples = 64\nvalue = [38, 26]"] ;
438 -> 460 ;
461 [label="x[2] <= 440.0\ngini = 0.5\nsamples = 44\nvalue = [22, 22]"] ;
460 -> 461 ;
462 [label="x[0] <= 505.5\ngini = 0.471\nsamples = 29\nvalue = [11, 18]"] ;
461 -> 462 ;
463 [label="gini = 0.0\nsamples = 3\nvalue = [3, 0]"] ;
462 -> 463 ;
464 [label="x[1] <= 86.0\ngini = 0.426\nsamples = 26\nvalue = [8, 18]"] ;
462 -> 464 ;
465 [label="x[2] <= 308.0\ngini = 0.278\nsamples = 18\nvalue = [3, 15]"] ;
464 -> 465 ;
466 [label="gini = 0.0\nsamples = 2\nvalue = [2, 0]"] ;
465 -> 466 ;
467 [label="x[3] <= 182.0\ngini = 0.117\nsamples = 16\nvalue = [1, 15]"] ;
465 -> 467 ;
468 [label="x[0] <= 544.5\ngini = 0.5\nsamples = 2\nvalue = [1, 1]"] ;
467 -> 468 ;
469 [label="gini = 0.0\nsamples = 1\nvalue = [1, 0]"] ;
468 -> 469 ;
470 [label="gini = 0.0\nsamples = 1\nvalue = [0, 1]"] ;
468 -> 470 ;
471 [label="gini = 0.0\nsamples = 14\nvalue = [0, 14]"] ;
467 -> 471 ;
472 [label="x[1] <= 98.0\ngini = 0.469\nsamples = 8\nvalue = [5, 3]"] ;
464 -> 472 ;
473 [label="gini = 0.0\nsamples = 5\nvalue = [5, 0]"] ;
472 -> 473 ;
474 [label="gini = 0.0\nsamples = 3\nvalue = [0, 3]"] ;
472 -> 474 ;
475 [label="x[0] <= 546.5\ngini = 0.391\nsamples = 15\nvalue = [11, 4]"] ;
461 -> 475 ;
476 [label="x[0] <= 502.0\ngini = 0.26\nsamples = 13\nvalue = [11, 2]"] ;
475 -> 476 ;
477 [label="gini = 0.0\nsamples = 1\nvalue = [0, 1]"] ;
476 -> 477 ;
478 [label="x[1] <= 92.5\ngini = 0.153\nsamples = 12\nvalue = [11, 1]"] ;
476 -> 478 ;
479 [label="gini = 0.0\nsamples = 10\nvalue = [10, 0]"] ;
478 -> 479 ;
480 [label="x[2] <= 473.5\ngini = 0.5\nsamples = 2\nvalue = [1, 1]"] ;
478 -> 480 ;
481 [label="gini = 0.0\nsamples = 1\nvalue = [1, 0]"] ;
480 -> 481 ;
482 [label="gini = 0.0\nsamples = 1\nvalue = [0, 1]"] ;
480 -> 482 ;
483 [label="gini = 0.0\nsamples = 2\nvalue = [0, 2]"] ;
475 -> 483 ;
484 [label="x[3] <= 156.0\ngini = 0.32\nsamples = 20\nvalue = [16, 4]"] ;
460 -> 484 ;
485 [label="x[2] <= 428.5\ngini = 0.494\nsamples = 9\nvalue = [5, 4]"] ;
484 -> 485 ;
486 [label="gini = 0.0\nsamples = 4\nvalue = [4, 0]"] ;
485 -> 486 ;
487 [label="x[3] <= 79.5\ngini = 0.32\nsamples = 5\nvalue = [1, 4]"] ;
485 -> 487 ;
488 [label="x[3] <= 24.5\ngini = 0.5\nsamples = 2\nvalue = [1, 1]"] ;
487 -> 488 ;
489 [label="gini = 0.0\nsamples = 1\nvalue = [0, 1]"] ;
488 -> 489 ;
490 [label="gini = 0.0\nsamples = 1\nvalue = [1, 0]"] ;
488 -> 490 ;
491 [label="gini = 0.0\nsamples = 3\nvalue = [0, 3]"] ;
487 -> 491 ;
492 [label="gini = 0.0\nsamples = 11\nvalue = [11, 0]"] ;
484 -> 492 ;
493 [label="x[3] <= 515.0\ngini = 0.448\nsamples = 71\nvalue = [24, 47]"] ;
437 -> 493 ;
494 [label="x[1] <= 74.0\ngini = 0.419\nsamples = 67\nvalue = [20, 47]"] ;
493 -> 494 ;
495 [label="x[3] <= 248.0\ngini = 0.315\nsamples = 46\nvalue = [9, 37]"] ;
494 -> 495 ;
496 [label="x[1] <= 63.5\ngini = 0.105\nsamples = 18\nvalue = [1, 17]"] ;
495 -> 496 ;
497 [label="gini = 0.0\nsamples = 12\nvalue = [0, 12]"] ;
496 -> 497 ;
498 [label="x[1] <= 65.5\ngini = 0.278\nsamples = 6\nvalue = [1, 5]"] ;
496 -> 498 ;
499 [label="gini = 0.0\nsamples = 1\nvalue = [1, 0]"] ;
498 -> 499 ;
500 [label="gini = 0.0\nsamples = 5\nvalue = [0, 5]"] ;
498 -> 500 ;
501 [label="x[3] <= 342.5\ngini = 0.408\nsamples = 28\nvalue = [8, 20]"] ;
495 -> 501 ;
502 [label="x[1] <= 47.5\ngini = 0.475\nsamples = 18\nvalue = [7, 11]"] ;
501 -> 502 ;
503 [label="gini = 0.0\nsamples = 3\nvalue = [0, 3]"] ;
502 -> 503 ;
504 [label="x[1] <= 50.5\ngini = 0.498\nsamples = 15\nvalue = [7, 8]"] ;
502 -> 504 ;
505 [label="gini = 0.0\nsamples = 2\nvalue = [2, 0]"] ;
504 -> 505 ;
506 [label="x[0] <= 612.5\ngini = 0.473\nsamples = 13\nvalue = [5, 8]"] ;
504 -> 506 ;
507 [label="x[2] <= 392.5\ngini = 0.5\nsamples = 10\nvalue = [5, 5]"] ;
506 -> 507 ;
508 [label="x[3] <= 325.0\ngini = 0.469\nsamples = 8\nvalue = [3, 5]"] ;
507 -> 508 ;
509 [label="x[0] <= 604.5\ngini = 0.278\nsamples = 6\nvalue = [1, 5]"] ;
508 -> 509 ;
510 [label="gini = 0.0\nsamples = 5\nvalue = [0, 5]"] ;
509 -> 510 ;
511 [label="gini = 0.0\nsamples = 1\nvalue = [1, 0]"] ;
509 -> 511 ;
512 [label="gini = 0.0\nsamples = 2\nvalue = [2, 0]"] ;
508 -> 512 ;
513 [label="gini = 0.0\nsamples = 2\nvalue = [2, 0]"] ;
507 -> 513 ;
514 [label="gini = 0.0\nsamples = 3\nvalue = [0, 3]"] ;
506 -> 514 ;
515 [label="x[0] <= 636.0\ngini = 0.18\nsamples = 10\nvalue = [1, 9]"] ;
501 -> 515 ;
516 [label="gini = 0.0\nsamples = 8\nvalue = [0, 8]"] ;
515 -> 516 ;
517 [label="x[2] <= 357.5\ngini = 0.5\nsamples = 2\nvalue = [1, 1]"] ;
515 -> 517 ;
518 [label="gini = 0.0\nsamples = 1\nvalue = [1, 0]"] ;
517 -> 518 ;
519 [label="gini = 0.0\nsamples = 1\nvalue = [0, 1]"] ;
517 -> 519 ;
520 [label="x[2] <= 415.0\ngini = 0.499\nsamples = 21\nvalue = [11, 10]"] ;
494 -> 520 ;
521 [label="x[2] <= 354.5\ngini = 0.444\nsamples = 15\nvalue = [10, 5]"] ;
520 -> 521 ;
522 [label="x[2] <= 311.0\ngini = 0.5\nsamples = 10\nvalue = [5, 5]"] ;
521 -> 522 ;
523 [label="x[1] <= 81.0\ngini = 0.408\nsamples = 7\nvalue = [5, 2]"] ;
522 -> 523 ;
524 [label="x[0] <= 599.5\ngini = 0.444\nsamples = 3\nvalue = [1, 2]"] ;
523 -> 524 ;
525 [label="gini = 0.0\nsamples = 1\nvalue = [1, 0]"] ;
524 -> 525 ;
526 [label="gini = 0.0\nsamples = 2\nvalue = [0, 2]"] ;
524 -> 526 ;
527 [label="gini = 0.0\nsamples = 4\nvalue = [4, 0]"] ;
523 -> 527 ;
528 [label="gini = 0.0\nsamples = 3\nvalue = [0, 3]"] ;
522 -> 528 ;
529 [label="gini = 0.0\nsamples = 5\nvalue = [5, 0]"] ;
521 -> 529 ;
530 [label="x[3] <= 434.0\ngini = 0.278\nsamples = 6\nvalue = [1, 5]"] ;
520 -> 530 ;
531 [label="gini = 0.0\nsamples = 5\nvalue = [0, 5]"] ;
530 -> 531 ;
532 [label="gini = 0.0\nsamples = 1\nvalue = [1, 0]"] ;
530 -> 532 ;
533 [label="gini = 0.0\nsamples = 4\nvalue = [4, 0]"] ;
493 -> 533 ;
534 [label="x[2] <= 202.0\ngini = 0.287\nsamples = 23\nvalue = [4, 19]"] ;
436 -> 534 ;
535 [label="gini = 0.0\nsamples = 1\nvalue = [1, 0]"] ;
534 -> 535 ;
536 [label="x[0] <= 607.5\ngini = 0.236\nsamples = 22\nvalue = [3, 19]"] ;
534 -> 536 ;
537 [label="x[1] <= 59.5\ngini = 0.117\nsamples = 16\nvalue = [1, 15]"] ;
536 -> 537 ;
538 [label="x[1] <= 57.5\ngini = 0.32\nsamples = 5\nvalue = [1, 4]"] ;
537 -> 538 ;
539 [label="gini = 0.0\nsamples = 4\nvalue = [0, 4]"] ;
538 -> 539 ;
540 [label="gini = 0.0\nsamples = 1\nvalue = [1, 0]"] ;
538 -> 540 ;
541 [label="gini = 0.0\nsamples = 11\nvalue = [0, 11]"] ;
537 -> 541 ;
542 [label="x[0] <= 620.0\ngini = 0.444\nsamples = 6\nvalue = [2, 4]"] ;
536 -> 542 ;
543 [label="gini = 0.0\nsamples = 2\nvalue = [2, 0]"] ;
542 -> 543 ;
544 [label="gini = 0.0\nsamples = 4\nvalue = [0, 4]"] ;
542 -> 544 ;
545 [label="x[2] <= 223.5\ngini = 0.346\nsamples = 9\nvalue = [7, 2]"] ;
435 -> 545 ;
546 [label="gini = 0.0\nsamples = 1\nvalue = [0, 1]"] ;
545 -> 546 ;
547 [label="x[1] <= 83.0\ngini = 0.219\nsamples = 8\nvalue = [7, 1]"] ;
545 -> 547 ;
548 [label="gini = 0.0\nsamples = 7\nvalue = [7, 0]"] ;
547 -> 548 ;
549 [label="gini = 0.0\nsamples = 1\nvalue = [0, 1]"] ;
547 -> 549 ;
550 [label="x[1] <= 51.0\ngini = 0.245\nsamples = 7\nvalue = [6, 1]"] ;
434 -> 550 ;
551 [label="x[3] <= 347.5\ngini = 0.5\nsamples = 2\nvalue = [1, 1]"] ;
550 -> 551 ;
552 [label="gini = 0.0\nsamples = 1\nvalue = [0, 1]"] ;
551 -> 552 ;
553 [label="gini = 0.0\nsamples = 1\nvalue = [1, 0]"] ;
551 -> 553 ;
554 [label="gini = 0.0\nsamples = 5\nvalue = [5, 0]"] ;
550 -> 554 ;
555 [label="gini = 0.0\nsamples = 7\nvalue = [0, 7]"] ;
433 -> 555 ;
556 [label="x[3] <= 584.5\ngini = 0.495\nsamples = 157\nvalue = [86, 71]"] ;
432 -> 556 ;
557 [label="x[0] <= 708.5\ngini = 0.5\nsamples = 129\nvalue = [64, 65]"] ;
556 -> 557 ;
558 [label="x[0] <= 679.0\ngini = 0.485\nsamples = 70\nvalue = [41.0, 29.0]"] ;
557 -> 558 ;
559 [label="x[0] <= 660.5\ngini = 0.492\nsamples = 32\nvalue = [14, 18]"] ;
558 -> 559 ;
560 [label="x[0] <= 655.5\ngini = 0.397\nsamples = 11\nvalue = [8, 3]"] ;
559 -> 560 ;
561 [label="x[0] <= 653.5\ngini = 0.48\nsamples = 5\nvalue = [2, 3]"] ;
560 -> 561 ;
562 [label="x[1] <= 81.5\ngini = 0.444\nsamples = 3\nvalue = [2, 1]"] ;
561 -> 562 ;
563 [label="gini = 0.0\nsamples = 1\nvalue = [0, 1]"] ;
562 -> 563 ;
564 [label="gini = 0.0\nsamples = 2\nvalue = [2, 0]"] ;
562 -> 564 ;
565 [label="gini = 0.0\nsamples = 2\nvalue = [0, 2]"] ;
561 -> 565 ;
566 [label="gini = 0.0\nsamples = 6\nvalue = [6, 0]"] ;
560 -> 566 ;
567 [label="x[3] <= 557.5\ngini = 0.408\nsamples = 21\nvalue = [6, 15]"] ;
559 -> 567 ;
568 [label="x[1] <= 51.0\ngini = 0.332\nsamples = 19\nvalue = [4, 15]"] ;
567 -> 568 ;
569 [label="x[0] <= 675.0\ngini = 0.444\nsamples = 3\nvalue = [2, 1]"] ;
568 -> 569 ;
570 [label="gini = 0.0\nsamples = 2\nvalue = [2, 0]"] ;
569 -> 570 ;
571 [label="gini = 0.0\nsamples = 1\nvalue = [0, 1]"] ;
569 -> 571 ;
572 [label="x[2] <= 191.5\ngini = 0.219\nsamples = 16\nvalue = [2, 14]"] ;
568 -> 572 ;
573 [label="gini = 0.0\nsamples = 1\nvalue = [1, 0]"] ;
572 -> 573 ;
574 [label="x[2] <= 473.5\ngini = 0.124\nsamples = 15\nvalue = [1, 14]"] ;
572 -> 574 ;
575 [label="gini = 0.0\nsamples = 11\nvalue = [0, 11]"] ;
574 -> 575 ;
576 [label="x[2] <= 479.0\ngini = 0.375\nsamples = 4\nvalue = [1, 3]"] ;
574 -> 576 ;
577 [label="gini = 0.0\nsamples = 1\nvalue = [1, 0]"] ;
576 -> 577 ;
578 [label="gini = 0.0\nsamples = 3\nvalue = [0, 3]"] ;
576 -> 578 ;
579 [label="gini = 0.0\nsamples = 2\nvalue = [2, 0]"] ;
567 -> 579 ;
580 [label="x[3] <= 287.0\ngini = 0.411\nsamples = 38\nvalue = [27, 11]"] ;
558 -> 580 ;
581 [label="x[3] <= 195.5\ngini = 0.498\nsamples = 15\nvalue = [8, 7]"] ;
580 -> 581 ;
582 [label="x[0] <= 701.5\ngini = 0.245\nsamples = 7\nvalue = [6, 1]"] ;
581 -> 582 ;
583 [label="gini = 0.0\nsamples = 6\nvalue = [6, 0]"] ;
582 -> 583 ;
584 [label="gini = 0.0\nsamples = 1\nvalue = [0, 1]"] ;
582 -> 584 ;
585 [label="x[0] <= 685.5\ngini = 0.375\nsamples = 8\nvalue = [2, 6]"] ;
581 -> 585 ;
586 [label="x[3] <= 230.5\ngini = 0.5\nsamples = 4\nvalue = [2, 2]"] ;
585 -> 586 ;
587 [label="gini = 0.0\nsamples = 2\nvalue = [0, 2]"] ;
586 -> 587 ;
588 [label="gini = 0.0\nsamples = 2\nvalue = [2, 0]"] ;
586 -> 588 ;
589 [label="gini = 0.0\nsamples = 4\nvalue = [0, 4]"] ;
585 -> 589 ;
590 [label="x[3] <= 558.0\ngini = 0.287\nsamples = 23\nvalue = [19, 4]"] ;
580 -> 590 ;
591 [label="x[1] <= 99.0\ngini = 0.18\nsamples = 20\nvalue = [18, 2]"] ;
590 -> 591 ;
592 [label="x[0] <= 706.5\ngini = 0.1\nsamples = 19\nvalue = [18, 1]"] ;
591 -> 592 ;
593 [label="gini = 0.0\nsamples = 16\nvalue = [16, 0]"] ;
592 -> 593 ;
594 [label="x[1] <= 60.5\ngini = 0.444\nsamples = 3\nvalue = [2, 1]"] ;
592 -> 594 ;
595 [label="gini = 0.0\nsamples = 1\nvalue = [0, 1]"] ;
594 -> 595 ;
596 [label="gini = 0.0\nsamples = 2\nvalue = [2, 0]"] ;
594 -> 596 ;
597 [label="gini = 0.0\nsamples = 1\nvalue = [0, 1]"] ;
591 -> 597 ;
598 [label="x[3] <= 575.0\ngini = 0.444\nsamples = 3\nvalue = [1, 2]"] ;
590 -> 598 ;
599 [label="gini = 0.0\nsamples = 2\nvalue = [0, 2]"] ;
598 -> 599 ;
600 [label="gini = 0.0\nsamples = 1\nvalue = [1, 0]"] ;
598 -> 600 ;
601 [label="x[1] <= 50.5\ngini = 0.476\nsamples = 59\nvalue = [23, 36]"] ;
557 -> 601 ;
602 [label="x[0] <= 740.5\ngini = 0.18\nsamples = 10\nvalue = [1, 9]"] ;
601 -> 602 ;
603 [label="gini = 0.0\nsamples = 8\nvalue = [0, 8]"] ;
602 -> 603 ;
604 [label="x[0] <= 744.5\ngini = 0.5\nsamples = 2\nvalue = [1, 1]"] ;
602 -> 604 ;
605 [label="gini = 0.0\nsamples = 1\nvalue = [1, 0]"] ;
604 -> 605 ;
606 [label="gini = 0.0\nsamples = 1\nvalue = [0, 1]"] ;
604 -> 606 ;
607 [label="x[1] <= 57.5\ngini = 0.495\nsamples = 49\nvalue = [22.0, 27.0]"] ;
601 -> 607 ;
608 [label="x[0] <= 731.5\ngini = 0.278\nsamples = 6\nvalue = [5, 1]"] ;
607 -> 608 ;
609 [label="gini = 0.0\nsamples = 3\nvalue = [3, 0]"] ;
608 -> 609 ;
610 [label="x[0] <= 738.0\ngini = 0.444\nsamples = 3\nvalue = [2, 1]"] ;
608 -> 610 ;
611 [label="gini = 0.0\nsamples = 1\nvalue = [0, 1]"] ;
610 -> 611 ;
612 [label="gini = 0.0\nsamples = 2\nvalue = [2, 0]"] ;
610 -> 612 ;
613 [label="x[1] <= 100.5\ngini = 0.478\nsamples = 43\nvalue = [17, 26]"] ;
607 -> 613 ;
614 [label="x[1] <= 86.5\ngini = 0.464\nsamples = 41\nvalue = [15, 26]"] ;
613 -> 614 ;
615 [label="x[1] <= 76.5\ngini = 0.491\nsamples = 30\nvalue = [13, 17]"] ;
614 -> 615 ;
616 [label="x[0] <= 713.5\ngini = 0.388\nsamples = 19\nvalue = [5, 14]"] ;
615 -> 616 ;
617 [label="x[3] <= 192.0\ngini = 0.444\nsamples = 3\nvalue = [2, 1]"] ;
616 -> 617 ;
618 [label="gini = 0.0\nsamples = 2\nvalue = [2, 0]"] ;
617 -> 618 ;
619 [label="gini = 0.0\nsamples = 1\nvalue = [0, 1]"] ;
617 -> 619 ;
620 [label="x[3] <= 425.5\ngini = 0.305\nsamples = 16\nvalue = [3, 13]"] ;
616 -> 620 ;
621 [label="x[2] <= 510.0\ngini = 0.142\nsamples = 13\nvalue = [1, 12]"] ;
620 -> 621 ;
622 [label="gini = 0.0\nsamples = 10\nvalue = [0, 10]"] ;
621 -> 622 ;
623 [label="x[3] <= 205.0\ngini = 0.444\nsamples = 3\nvalue = [1, 2]"] ;
621 -> 623 ;
624 [label="gini = 0.0\nsamples = 2\nvalue = [0, 2]"] ;
623 -> 624 ;
625 [label="gini = 0.0\nsamples = 1\nvalue = [1, 0]"] ;
623 -> 625 ;
626 [label="x[0] <= 744.0\ngini = 0.444\nsamples = 3\nvalue = [2, 1]"] ;
620 -> 626 ;
627 [label="gini = 0.0\nsamples = 2\nvalue = [2, 0]"] ;
626 -> 627 ;
628 [label="gini = 0.0\nsamples = 1\nvalue = [0, 1]"] ;
626 -> 628 ;
629 [label="x[0] <= 714.5\ngini = 0.397\nsamples = 11\nvalue = [8, 3]"] ;
615 -> 629 ;
630 [label="gini = 0.0\nsamples = 2\nvalue = [0, 2]"] ;
629 -> 630 ;
631 [label="x[3] <= 465.5\ngini = 0.198\nsamples = 9\nvalue = [8, 1]"] ;
629 -> 631 ;
632 [label="gini = 0.0\nsamples = 8\nvalue = [8, 0]"] ;
631 -> 632 ;
633 [label="gini = 0.0\nsamples = 1\nvalue = [0, 1]"] ;
631 -> 633 ;
634 [label="x[2] <= 439.5\ngini = 0.298\nsamples = 11\nvalue = [2, 9]"] ;
614 -> 634 ;
635 [label="x[1] <= 96.5\ngini = 0.18\nsamples = 10\nvalue = [1, 9]"] ;
634 -> 635 ;
636 [label="gini = 0.0\nsamples = 7\nvalue = [0, 7]"] ;
635 -> 636 ;
637 [label="x[3] <= 416.0\ngini = 0.444\nsamples = 3\nvalue = [1, 2]"] ;
635 -> 637 ;
638 [label="gini = 0.0\nsamples = 2\nvalue = [0, 2]"] ;
637 -> 638 ;
639 [label="gini = 0.0\nsamples = 1\nvalue = [1, 0]"] ;
637 -> 639 ;
640 [label="gini = 0.0\nsamples = 1\nvalue = [1, 0]"] ;
634 -> 640 ;
641 [label="gini = 0.0\nsamples = 2\nvalue = [2, 0]"] ;
613 -> 641 ;
642 [label="x[2] <= 447.0\ngini = 0.337\nsamples = 28\nvalue = [22, 6]"] ;
556 -> 642 ;
643 [label="x[3] <= 700.5\ngini = 0.26\nsamples = 26\nvalue = [22, 4]"] ;
642 -> 643 ;
644 [label="x[1] <= 97.0\ngini = 0.211\nsamples = 25\nvalue = [22, 3]"] ;
643 -> 644 ;
645 [label="x[0] <= 687.5\ngini = 0.159\nsamples = 23\nvalue = [21, 2]"] ;
644 -> 645 ;
646 [label="x[0] <= 685.0\ngini = 0.346\nsamples = 9\nvalue = [7, 2]"] ;
645 -> 646 ;
647 [label="x[3] <= 670.5\ngini = 0.219\nsamples = 8\nvalue = [7, 1]"] ;
646 -> 647 ;
648 [label="gini = 0.0\nsamples = 6\nvalue = [6, 0]"] ;
647 -> 648 ;
649 [label="x[3] <= 687.0\ngini = 0.5\nsamples = 2\nvalue = [1, 1]"] ;
647 -> 649 ;
650 [label="gini = 0.0\nsamples = 1\nvalue = [0, 1]"] ;
649 -> 650 ;
651 [label="gini = 0.0\nsamples = 1\nvalue = [1, 0]"] ;
649 -> 651 ;
652 [label="gini = 0.0\nsamples = 1\nvalue = [0, 1]"] ;
646 -> 652 ;
653 [label="gini = 0.0\nsamples = 14\nvalue = [14, 0]"] ;
645 -> 653 ;
654 [label="x[2] <= 347.0\ngini = 0.5\nsamples = 2\nvalue = [1, 1]"] ;
644 -> 654 ;
655 [label="gini = 0.0\nsamples = 1\nvalue = [0, 1]"] ;
654 -> 655 ;
656 [label="gini = 0.0\nsamples = 1\nvalue = [1, 0]"] ;
654 -> 656 ;
657 [label="gini = 0.0\nsamples = 1\nvalue = [0, 1]"] ;
643 -> 657 ;
658 [label="gini = 0.0\nsamples = 2\nvalue = [0, 2]"] ;
642 -> 658 ;
659 [label="x[3] <= 538.5\ngini = 0.481\nsamples = 109\nvalue = [65, 44]"] ;
431 -> 659 ;
660 [label="x[3] <= 288.5\ngini = 0.436\nsamples = 78\nvalue = [53.0, 25.0]"] ;
659 -> 660 ;
661 [label="x[3] <= 279.5\ngini = 0.485\nsamples = 41\nvalue = [24, 17]"] ;
660 -> 661 ;
662 [label="x[0] <= 525.5\ngini = 0.465\nsamples = 38\nvalue = [24, 14]"] ;
661 -> 662 ;
663 [label="gini = 0.0\nsamples = 2\nvalue = [0, 2]"] ;
662 -> 663 ;
664 [label="x[2] <= 434.5\ngini = 0.444\nsamples = 36\nvalue = [24, 12]"] ;
662 -> 664 ;
665 [label="x[2] <= 291.0\ngini = 0.33\nsamples = 24\nvalue = [19, 5]"] ;
664 -> 665 ;
666 [label="x[3] <= 64.5\ngini = 0.494\nsamples = 9\nvalue = [5, 4]"] ;
665 -> 666 ;
667 [label="gini = 0.0\nsamples = 4\nvalue = [4, 0]"] ;
666 -> 667 ;
668 [label="x[1] <= 113.0\ngini = 0.32\nsamples = 5\nvalue = [1, 4]"] ;
666 -> 668 ;
669 [label="gini = 0.0\nsamples = 1\nvalue = [1, 0]"] ;
668 -> 669 ;
670 [label="gini = 0.0\nsamples = 4\nvalue = [0, 4]"] ;
668 -> 670 ;
671 [label="x[0] <= 588.5\ngini = 0.124\nsamples = 15\nvalue = [14, 1]"] ;
665 -> 671 ;
672 [label="x[0] <= 579.0\ngini = 0.375\nsamples = 4\nvalue = [3, 1]"] ;
671 -> 672 ;
673 [label="gini = 0.0\nsamples = 3\nvalue = [3, 0]"] ;
672 -> 673 ;
674 [label="gini = 0.0\nsamples = 1\nvalue = [0, 1]"] ;
672 -> 674 ;
675 [label="gini = 0.0\nsamples = 11\nvalue = [11, 0]"] ;
671 -> 675 ;
676 [label="x[0] <= 653.0\ngini = 0.486\nsamples = 12\nvalue = [5, 7]"] ;
664 -> 676 ;
677 [label="x[2] <= 448.0\ngini = 0.444\nsamples = 6\nvalue = [4, 2]"] ;
676 -> 677 ;
678 [label="gini = 0.0\nsamples = 1\nvalue = [0, 1]"] ;
677 -> 678 ;
679 [label="x[3] <= 86.0\ngini = 0.32\nsamples = 5\nvalue = [4, 1]"] ;
677 -> 679 ;
680 [label="x[1] <= 108.5\ngini = 0.5\nsamples = 2\nvalue = [1, 1]"] ;
679 -> 680 ;
681 [label="gini = 0.0\nsamples = 1\nvalue = [1, 0]"] ;
680 -> 681 ;
682 [label="gini = 0.0\nsamples = 1\nvalue = [0, 1]"] ;
680 -> 682 ;
683 [label="gini = 0.0\nsamples = 3\nvalue = [3, 0]"] ;
679 -> 683 ;
684 [label="x[3] <= 125.5\ngini = 0.278\nsamples = 6\nvalue = [1, 5]"] ;
676 -> 684 ;
685 [label="gini = 0.0\nsamples = 4\nvalue = [0, 4]"] ;
684 -> 685 ;
686 [label="x[2] <= 492.5\ngini = 0.5\nsamples = 2\nvalue = [1, 1]"] ;
684 -> 686 ;
687 [label="gini = 0.0\nsamples = 1\nvalue = [1, 0]"] ;
686 -> 687 ;
688 [label="gini = 0.0\nsamples = 1\nvalue = [0, 1]"] ;
686 -> 688 ;
689 [label="gini = 0.0\nsamples = 3\nvalue = [0, 3]"] ;
661 -> 689 ;
690 [label="x[2] <= 519.5\ngini = 0.339\nsamples = 37\nvalue = [29, 8]"] ;
660 -> 690 ;
691 [label="x[2] <= 437.5\ngini = 0.313\nsamples = 36\nvalue = [29, 7]"] ;
690 -> 691 ;
692 [label="x[2] <= 414.0\ngini = 0.413\nsamples = 24\nvalue = [17, 7]"] ;
691 -> 692 ;
693 [label="x[3] <= 459.5\ngini = 0.351\nsamples = 22\nvalue = [17, 5]"] ;
692 -> 693 ;
694 [label="x[1] <= 117.5\ngini = 0.444\nsamples = 15\nvalue = [10, 5]"] ;
693 -> 694 ;
695 [label="x[3] <= 448.0\ngini = 0.408\nsamples = 14\nvalue = [10, 4]"] ;
694 -> 695 ;
696 [label="x[2] <= 258.5\ngini = 0.355\nsamples = 13\nvalue = [10, 3]"] ;
695 -> 696 ;
697 [label="gini = 0.0\nsamples = 6\nvalue = [6, 0]"] ;
696 -> 697 ;
698 [label="x[2] <= 278.5\ngini = 0.49\nsamples = 7\nvalue = [4, 3]"] ;
696 -> 698 ;
699 [label="gini = 0.0\nsamples = 1\nvalue = [0, 1]"] ;
698 -> 699 ;
700 [label="x[3] <= 334.0\ngini = 0.444\nsamples = 6\nvalue = [4, 2]"] ;
698 -> 700 ;
701 [label="x[3] <= 308.5\ngini = 0.444\nsamples = 3\nvalue = [1, 2]"] ;
700 -> 701 ;
702 [label="gini = 0.0\nsamples = 1\nvalue = [1, 0]"] ;
701 -> 702 ;
703 [label="gini = 0.0\nsamples = 2\nvalue = [0, 2]"] ;
701 -> 703 ;
704 [label="gini = 0.0\nsamples = 3\nvalue = [3, 0]"] ;
700 -> 704 ;
705 [label="gini = 0.0\nsamples = 1\nvalue = [0, 1]"] ;
695 -> 705 ;
706 [label="gini = 0.0\nsamples = 1\nvalue = [0, 1]"] ;
694 -> 706 ;
707 [label="gini = 0.0\nsamples = 7\nvalue = [7, 0]"] ;
693 -> 707 ;
708 [label="gini = 0.0\nsamples = 2\nvalue = [0, 2]"] ;
692 -> 708 ;
709 [label="gini = 0.0\nsamples = 12\nvalue = [12, 0]"] ;
691 -> 709 ;
710 [label="gini = 0.0\nsamples = 1\nvalue = [0, 1]"] ;
690 -> 710 ;
711 [label="x[0] <= 728.5\ngini = 0.475\nsamples = 31\nvalue = [12, 19]"] ;
659 -> 711 ;
712 [label="x[3] <= 638.0\ngini = 0.452\nsamples = 29\nvalue = [10, 19]"] ;
711 -> 712 ;
713 [label="x[3] <= 584.5\ngini = 0.305\nsamples = 16\nvalue = [3, 13]"] ;
712 -> 713 ;
714 [label="x[3] <= 549.5\ngini = 0.469\nsamples = 8\nvalue = [3, 5]"] ;
713 -> 714 ;
715 [label="gini = 0.0\nsamples = 3\nvalue = [0, 3]"] ;
714 -> 715 ;
716 [label="x[1] <= 114.0\ngini = 0.48\nsamples = 5\nvalue = [3, 2]"] ;
714 -> 716 ;
717 [label="x[3] <= 558.5\ngini = 0.444\nsamples = 3\nvalue = [1, 2]"] ;
716 -> 717 ;
718 [label="gini = 0.0\nsamples = 1\nvalue = [1, 0]"] ;
717 -> 718 ;
719 [label="gini = 0.0\nsamples = 2\nvalue = [0, 2]"] ;
717 -> 719 ;
720 [label="gini = 0.0\nsamples = 2\nvalue = [2, 0]"] ;
716 -> 720 ;
721 [label="gini = 0.0\nsamples = 8\nvalue = [0, 8]"] ;
713 -> 721 ;
722 [label="x[1] <= 107.0\ngini = 0.497\nsamples = 13\nvalue = [7, 6]"] ;
712 -> 722 ;
723 [label="gini = 0.0\nsamples = 3\nvalue = [3, 0]"] ;
722 -> 723 ;
724 [label="x[2] <= 339.5\ngini = 0.48\nsamples = 10\nvalue = [4, 6]"] ;
722 -> 724 ;
725 [label="gini = 0.0\nsamples = 4\nvalue = [0, 4]"] ;
724 -> 725 ;
726 [label="x[2] <= 373.0\ngini = 0.444\nsamples = 6\nvalue = [4, 2]"] ;
724 -> 726 ;
727 [label="gini = 0.0\nsamples = 3\nvalue = [3, 0]"] ;
726 -> 727 ;
728 [label="x[3] <= 693.0\ngini = 0.444\nsamples = 3\nvalue = [1, 2]"] ;
726 -> 728 ;
729 [label="gini = 0.0\nsamples = 2\nvalue = [0, 2]"] ;
728 -> 729 ;
730 [label="gini = 0.0\nsamples = 1\nvalue = [1, 0]"] ;
728 -> 730 ;
731 [label="gini = 0.0\nsamples = 2\nvalue = [2, 0]"] ;
711 -> 731 ;
732 [label="x[3] <= 556.5\ngini = 0.485\nsamples = 661\nvalue = [387.0, 274.0]"] ;
430 -> 732 ;
733 [label="x[0] <= 502.5\ngini = 0.474\nsamples = 511\nvalue = [314, 197]"] ;
732 -> 733 ;
734 [label="gini = 0.0\nsamples = 4\nvalue = [0, 4]"] ;
733 -> 734 ;
735 [label="x[3] <= 6.5\ngini = 0.472\nsamples = 507\nvalue = [314, 193]"] ;
733 -> 735 ;
736 [label="x[1] <= 47.0\ngini = 0.165\nsamples = 11\nvalue = [10, 1]"] ;
735 -> 736 ;
737 [label="gini = 0.0\nsamples = 1\nvalue = [0, 1]"] ;
736 -> 737 ;
738 [label="gini = 0.0\nsamples = 10\nvalue = [10, 0]"] ;
736 -> 738 ;
739 [label="x[3] <= 13.0\ngini = 0.475\nsamples = 496\nvalue = [304, 192]"] ;
735 -> 739 ;
740 [label="x[0] <= 538.5\ngini = 0.245\nsamples = 7\nvalue = [1, 6]"] ;
739 -> 740 ;
741 [label="gini = 0.0\nsamples = 1\nvalue = [1, 0]"] ;
740 -> 741 ;
742 [label="gini = 0.0\nsamples = 6\nvalue = [0, 6]"] ;
740 -> 742 ;
743 [label="x[3] <= 507.5\ngini = 0.471\nsamples = 489\nvalue = [303, 186]"] ;
739 -> 743 ;
744 [label="x[0] <= 739.5\ngini = 0.476\nsamples = 458\nvalue = [279, 179]"] ;
743 -> 744 ;
745 [label="x[1] <= 118.5\ngini = 0.472\nsamples = 440\nvalue = [272, 168]"] ;
744 -> 745 ;
746 [label="x[1] <= 117.5\ngini = 0.476\nsamples = 422\nvalue = [257, 165]"] ;
745 -> 746 ;
747 [label="x[3] <= 220.0\ngini = 0.474\nsamples = 415\nvalue = [255, 160]"] ;
746 -> 747 ;
748 [label="x[3] <= 192.5\ngini = 0.448\nsamples = 186\nvalue = [123.0, 63.0]"] ;
747 -> 748 ;
749 [label="x[3] <= 170.5\ngini = 0.467\nsamples = 151\nvalue = [95, 56]"] ;
748 -> 749 ;
750 [label="x[3] <= 107.0\ngini = 0.444\nsamples = 129\nvalue = [86, 43]"] ;
749 -> 750 ;
751 [label="x[3] <= 89.5\ngini = 0.487\nsamples = 69\nvalue = [40, 29]"] ;
750 -> 751 ;
752 [label="x[2] <= 903.5\ngini = 0.476\nsamples = 64\nvalue = [39, 25]"] ;
751 -> 752 ;
753 [label="x[3] <= 69.5\ngini = 0.492\nsamples = 55\nvalue = [31.0, 24.0]"] ;
752 -> 753 ;
754 [label="x[3] <= 43.0\ngini = 0.5\nsamples = 41\nvalue = [20, 21]"] ;
753 -> 754 ;
755 [label="x[2] <= 789.5\ngini = 0.463\nsamples = 22\nvalue = [14, 8]"] ;
754 -> 755 ;
756 [label="x[0] <= 508.0\ngini = 0.36\nsamples = 17\nvalue = [13, 4]"] ;
755 -> 756 ;
757 [label="gini = 0.0\nsamples = 1\nvalue = [0, 1]"] ;
756 -> 757 ;
758 [label="x[0] <= 549.0\ngini = 0.305\nsamples = 16\nvalue = [13, 3]"] ;
756 -> 758 ;
759 [label="gini = 0.0\nsamples = 5\nvalue = [5, 0]"] ;
758 -> 759 ;
760 [label="x[0] <= 674.0\ngini = 0.397\nsamples = 11\nvalue = [8, 3]"] ;
758 -> 760 ;
761 [label="x[3] <= 31.5\ngini = 0.5\nsamples = 6\nvalue = [3, 3]"] ;
760 -> 761 ;
762 [label="x[0] <= 581.0\ngini = 0.375\nsamples = 4\nvalue = [3, 1]"] ;
761 -> 762 ;
763 [label="gini = 0.0\nsamples = 1\nvalue = [0, 1]"] ;
762 -> 763 ;
764 [label="gini = 0.0\nsamples = 3\nvalue = [3, 0]"] ;
762 -> 764 ;
765 [label="gini = 0.0\nsamples = 2\nvalue = [0, 2]"] ;
761 -> 765 ;
766 [label="gini = 0.0\nsamples = 5\nvalue = [5, 0]"] ;
760 -> 766 ;
767 [label="x[3] <= 20.0\ngini = 0.32\nsamples = 5\nvalue = [1, 4]"] ;
755 -> 767 ;
768 [label="gini = 0.0\nsamples = 1\nvalue = [1, 0]"] ;
767 -> 768 ;
769 [label="gini = 0.0\nsamples = 4\nvalue = [0, 4]"] ;
767 -> 769 ;
770 [label="x[2] <= 539.5\ngini = 0.432\nsamples = 19\nvalue = [6, 13]"] ;
754 -> 770 ;
771 [label="gini = 0.0\nsamples = 2\nvalue = [2, 0]"] ;
770 -> 771 ;
772 [label="x[2] <= 737.5\ngini = 0.36\nsamples = 17\nvalue = [4, 13]"] ;
770 -> 772 ;
773 [label="x[3] <= 46.5\ngini = 0.165\nsamples = 11\nvalue = [1, 10]"] ;
772 -> 773 ;
774 [label="x[2] <= 627.0\ngini = 0.444\nsamples = 3\nvalue = [1, 2]"] ;
773 -> 774 ;
775 [label="gini = 0.0\nsamples = 1\nvalue = [1, 0]"] ;
774 -> 775 ;
776 [label="gini = 0.0\nsamples = 2\nvalue = [0, 2]"] ;
774 -> 776 ;
777 [label="gini = 0.0\nsamples = 8\nvalue = [0, 8]"] ;
773 -> 777 ;
778 [label="x[0] <= 561.0\ngini = 0.5\nsamples = 6\nvalue = [3, 3]"] ;
772 -> 778 ;
779 [label="gini = 0.0\nsamples = 2\nvalue = [2, 0]"] ;
778 -> 779 ;
780 [label="x[2] <= 793.5\ngini = 0.375\nsamples = 4\nvalue = [1, 3]"] ;
778 -> 780 ;
781 [label="gini = 0.0\nsamples = 1\nvalue = [1, 0]"] ;
780 -> 781 ;
782 [label="gini = 0.0\nsamples = 3\nvalue = [0, 3]"] ;
780 -> 782 ;
783 [label="x[2] <= 866.5\ngini = 0.337\nsamples = 14\nvalue = [11, 3]"] ;
753 -> 783 ;
784 [label="x[0] <= 526.0\ngini = 0.165\nsamples = 11\nvalue = [10, 1]"] ;
783 -> 784 ;
785 [label="gini = 0.0\nsamples = 1\nvalue = [0, 1]"] ;
784 -> 785 ;
786 [label="gini = 0.0\nsamples = 10\nvalue = [10, 0]"] ;
784 -> 786 ;
787 [label="x[0] <= 517.0\ngini = 0.444\nsamples = 3\nvalue = [1, 2]"] ;
783 -> 787 ;
788 [label="gini = 0.0\nsamples = 1\nvalue = [1, 0]"] ;
787 -> 788 ;
789 [label="gini = 0.0\nsamples = 2\nvalue = [0, 2]"] ;
787 -> 789 ;
790 [label="x[0] <= 671.0\ngini = 0.198\nsamples = 9\nvalue = [8, 1]"] ;
752 -> 790 ;
791 [label="gini = 0.0\nsamples = 7\nvalue = [7, 0]"] ;
790 -> 791 ;
792 [label="x[0] <= 709.5\ngini = 0.5\nsamples = 2\nvalue = [1, 1]"] ;
790 -> 792 ;
793 [label="gini = 0.0\nsamples = 1\nvalue = [0, 1]"] ;
792 -> 793 ;
794 [label="gini = 0.0\nsamples = 1\nvalue = [1, 0]"] ;
792 -> 794 ;
795 [label="x[1] <= 108.5\ngini = 0.32\nsamples = 5\nvalue = [1, 4]"] ;
751 -> 795 ;
796 [label="gini = 0.0\nsamples = 4\nvalue = [0, 4]"] ;
795 -> 796 ;
797 [label="gini = 0.0\nsamples = 1\nvalue = [1, 0]"] ;
795 -> 797 ;
798 [label="x[3] <= 128.0\ngini = 0.358\nsamples = 60\nvalue = [46, 14]"] ;
750 -> 798 ;
799 [label="gini = 0.0\nsamples = 11\nvalue = [11, 0]"] ;
798 -> 799 ;
800 [label="x[0] <= 565.5\ngini = 0.408\nsamples = 49\nvalue = [35, 14]"] ;
798 -> 800 ;
801 [label="x[2] <= 795.5\ngini = 0.5\nsamples = 12\nvalue = [6, 6]"] ;
800 -> 801 ;
802 [label="gini = 0.0\nsamples = 5\nvalue = [5, 0]"] ;
801 -> 802 ;
803 [label="x[1] <= 52.5\ngini = 0.245\nsamples = 7\nvalue = [1, 6]"] ;
801 -> 803 ;
804 [label="gini = 0.0\nsamples = 1\nvalue = [1, 0]"] ;
803 -> 804 ;
805 [label="gini = 0.0\nsamples = 6\nvalue = [0, 6]"] ;
803 -> 805 ;
806 [label="x[3] <= 154.5\ngini = 0.339\nsamples = 37\nvalue = [29, 8]"] ;
800 -> 806 ;
807 [label="x[0] <= 643.0\ngini = 0.432\nsamples = 19\nvalue = [13, 6]"] ;
806 -> 807 ;
808 [label="x[0] <= 592.0\ngini = 0.198\nsamples = 9\nvalue = [8, 1]"] ;
807 -> 808 ;
809 [label="gini = 0.0\nsamples = 1\nvalue = [0, 1]"] ;
808 -> 809 ;
810 [label="gini = 0.0\nsamples = 8\nvalue = [8, 0]"] ;
808 -> 810 ;
811 [label="x[1] <= 47.5\ngini = 0.5\nsamples = 10\nvalue = [5, 5]"] ;
807 -> 811 ;
812 [label="gini = 0.0\nsamples = 2\nvalue = [2, 0]"] ;
811 -> 812 ;
813 [label="x[1] <= 92.5\ngini = 0.469\nsamples = 8\nvalue = [3, 5]"] ;
811 -> 813 ;
814 [label="gini = 0.0\nsamples = 4\nvalue = [0, 4]"] ;
813 -> 814 ;
815 [label="x[3] <= 129.5\ngini = 0.375\nsamples = 4\nvalue = [3, 1]"] ;
813 -> 815 ;
816 [label="gini = 0.0\nsamples = 1\nvalue = [0, 1]"] ;
815 -> 816 ;
817 [label="gini = 0.0\nsamples = 3\nvalue = [3, 0]"] ;
815 -> 817 ;
818 [label="x[1] <= 49.0\ngini = 0.198\nsamples = 18\nvalue = [16, 2]"] ;
806 -> 818 ;
819 [label="gini = 0.0\nsamples = 1\nvalue = [0, 1]"] ;
818 -> 819 ;
820 [label="x[2] <= 758.0\ngini = 0.111\nsamples = 17\nvalue = [16, 1]"] ;
818 -> 820 ;
821 [label="x[2] <= 742.5\ngini = 0.32\nsamples = 5\nvalue = [4, 1]"] ;
820 -> 821 ;
822 [label="gini = 0.0\nsamples = 4\nvalue = [4, 0]"] ;
821 -> 822 ;
823 [label="gini = 0.0\nsamples = 1\nvalue = [0, 1]"] ;
821 -> 823 ;
824 [label="gini = 0.0\nsamples = 12\nvalue = [12, 0]"] ;
820 -> 824 ;
825 [label="x[2] <= 825.5\ngini = 0.483\nsamples = 22\nvalue = [9, 13]"] ;
749 -> 825 ;
826 [label="x[1] <= 99.5\ngini = 0.486\nsamples = 12\nvalue = [7, 5]"] ;
825 -> 826 ;
827 [label="x[2] <= 655.5\ngini = 0.42\nsamples = 10\nvalue = [7, 3]"] ;
826 -> 827 ;
828 [label="x[1] <= 64.5\ngini = 0.5\nsamples = 6\nvalue = [3, 3]"] ;
827 -> 828 ;
829 [label="gini = 0.0\nsamples = 2\nvalue = [0, 2]"] ;
828 -> 829 ;
830 [label="x[0] <= 660.5\ngini = 0.375\nsamples = 4\nvalue = [3, 1]"] ;
828 -> 830 ;
831 [label="gini = 0.0\nsamples = 3\nvalue = [3, 0]"] ;
830 -> 831 ;
832 [label="gini = 0.0\nsamples = 1\nvalue = [0, 1]"] ;
830 -> 832 ;
833 [label="gini = 0.0\nsamples = 4\nvalue = [4, 0]"] ;
827 -> 833 ;
834 [label="gini = 0.0\nsamples = 2\nvalue = [0, 2]"] ;
826 -> 834 ;
835 [label="x[0] <= 564.0\ngini = 0.32\nsamples = 10\nvalue = [2, 8]"] ;
825 -> 835 ;
836 [label="gini = 0.0\nsamples = 1\nvalue = [1, 0]"] ;
835 -> 836 ;
837 [label="x[2] <= 995.0\ngini = 0.198\nsamples = 9\nvalue = [1, 8]"] ;
835 -> 837 ;
838 [label="gini = 0.0\nsamples = 8\nvalue = [0, 8]"] ;
837 -> 838 ;
839 [label="gini = 0.0\nsamples = 1\nvalue = [1, 0]"] ;
837 -> 839 ;
840 [label="x[0] <= 668.5\ngini = 0.32\nsamples = 35\nvalue = [28, 7]"] ;
748 -> 840 ;
841 [label="x[2] <= 987.5\ngini = 0.159\nsamples = 23\nvalue = [21, 2]"] ;
840 -> 841 ;
842 [label="x[3] <= 215.0\ngini = 0.091\nsamples = 21\nvalue = [20, 1]"] ;
841 -> 842 ;
843 [label="gini = 0.0\nsamples = 17\nvalue = [17, 0]"] ;
842 -> 843 ;
844 [label="x[2] <= 832.0\ngini = 0.375\nsamples = 4\nvalue = [3, 1]"] ;
842 -> 844 ;
845 [label="x[2] <= 673.0\ngini = 0.5\nsamples = 2\nvalue = [1, 1]"] ;
844 -> 845 ;
846 [label="gini = 0.0\nsamples = 1\nvalue = [1, 0]"] ;
845 -> 846 ;
847 [label="gini = 0.0\nsamples = 1\nvalue = [0, 1]"] ;
845 -> 847 ;
848 [label="gini = 0.0\nsamples = 2\nvalue = [2, 0]"] ;
844 -> 848 ;
849 [label="x[3] <= 208.5\ngini = 0.5\nsamples = 2\nvalue = [1, 1]"] ;
841 -> 849 ;
850 [label="gini = 0.0\nsamples = 1\nvalue = [0, 1]"] ;
849 -> 850 ;
851 [label="gini = 0.0\nsamples = 1\nvalue = [1, 0]"] ;
849 -> 851 ;
852 [label="x[3] <= 203.5\ngini = 0.486\nsamples = 12\nvalue = [7, 5]"] ;
840 -> 852 ;
853 [label="gini = 0.0\nsamples = 4\nvalue = [4, 0]"] ;
852 -> 853 ;
854 [label="x[3] <= 214.5\ngini = 0.469\nsamples = 8\nvalue = [3, 5]"] ;
852 -> 854 ;
855 [label="x[2] <= 605.5\ngini = 0.278\nsamples = 6\nvalue = [1, 5]"] ;
854 -> 855 ;
856 [label="x[0] <= 695.0\ngini = 0.444\nsamples = 3\nvalue = [1, 2]"] ;
855 -> 856 ;
857 [label="gini = 0.0\nsamples = 2\nvalue = [0, 2]"] ;
856 -> 857 ;
858 [label="gini = 0.0\nsamples = 1\nvalue = [1, 0]"] ;
856 -> 858 ;
859 [label="gini = 0.0\nsamples = 3\nvalue = [0, 3]"] ;
855 -> 859 ;
860 [label="gini = 0.0\nsamples = 2\nvalue = [2, 0]"] ;
854 -> 860 ;
861 [label="x[0] <= 505.5\ngini = 0.488\nsamples = 229\nvalue = [132, 97]"] ;
747 -> 861 ;
862 [label="gini = 0.0\nsamples = 3\nvalue = [0, 3]"] ;
861 -> 862 ;
863 [label="x[2] <= 533.5\ngini = 0.486\nsamples = 226\nvalue = [132, 94]"] ;
861 -> 863 ;
864 [label="gini = 0.0\nsamples = 3\nvalue = [0, 3]"] ;
863 -> 864 ;
865 [label="x[2] <= 550.0\ngini = 0.483\nsamples = 223\nvalue = [132, 91]"] ;
863 -> 865 ;
866 [label="gini = 0.0\nsamples = 8\nvalue = [8, 0]"] ;
865 -> 866 ;
867 [label="x[2] <= 555.0\ngini = 0.488\nsamples = 215\nvalue = [124.0, 91.0]"] ;
865 -> 867 ;
868 [label="gini = 0.0\nsamples = 3\nvalue = [0, 3]"] ;
867 -> 868 ;
869 [label="x[0] <= 684.5\ngini = 0.486\nsamples = 212\nvalue = [124, 88]"] ;
867 -> 869 ;
870 [label="x[2] <= 788.5\ngini = 0.496\nsamples = 159\nvalue = [87, 72]"] ;
869 -> 870 ;
871 [label="x[2] <= 753.0\ngini = 0.465\nsamples = 79\nvalue = [50, 29]"] ;
870 -> 871 ;
872 [label="x[0] <= 682.5\ngini = 0.492\nsamples = 64\nvalue = [36, 28]"] ;
871 -> 872 ;
873 [label="x[0] <= 649.5\ngini = 0.484\nsamples = 61\nvalue = [36, 25]"] ;
872 -> 873 ;
874 [label="x[2] <= 746.5\ngini = 0.497\nsamples = 52\nvalue = [28, 24]"] ;
873 -> 874 ;
875 [label="x[0] <= 641.0\ngini = 0.49\nsamples = 49\nvalue = [28, 21]"] ;
874 -> 875 ;
876 [label="x[3] <= 248.0\ngini = 0.476\nsamples = 46\nvalue = [28, 18]"] ;
875 -> 876 ;
877 [label="x[0] <= 612.5\ngini = 0.375\nsamples = 8\nvalue = [2, 6]"] ;
876 -> 877 ;
878 [label="gini = 0.0\nsamples = 5\nvalue = [0, 5]"] ;
877 -> 878 ;
879 [label="x[3] <= 227.0\ngini = 0.444\nsamples = 3\nvalue = [2, 1]"] ;
877 -> 879 ;
880 [label="gini = 0.0\nsamples = 1\nvalue = [0, 1]"] ;
879 -> 880 ;
881 [label="gini = 0.0\nsamples = 2\nvalue = [2, 0]"] ;
879 -> 881 ;
882 [label="x[2] <= 641.5\ngini = 0.432\nsamples = 38\nvalue = [26, 12]"] ;
876 -> 882 ;
883 [label="x[2] <= 603.5\ngini = 0.133\nsamples = 14\nvalue = [13, 1]"] ;
882 -> 883 ;
884 [label="gini = 0.0\nsamples = 9\nvalue = [9, 0]"] ;
883 -> 884 ;
885 [label="x[2] <= 613.5\ngini = 0.32\nsamples = 5\nvalue = [4, 1]"] ;
883 -> 885 ;
886 [label="gini = 0.0\nsamples = 1\nvalue = [0, 1]"] ;
885 -> 886 ;
887 [label="gini = 0.0\nsamples = 4\nvalue = [4, 0]"] ;
885 -> 887 ;
888 [label="x[0] <= 608.0\ngini = 0.497\nsamples = 24\nvalue = [13, 11]"] ;
882 -> 888 ;
889 [label="x[2] <= 654.0\ngini = 0.472\nsamples = 21\nvalue = [13, 8]"] ;
888 -> 889 ;
890 [label="x[3] <= 422.0\ngini = 0.375\nsamples = 4\nvalue = [1, 3]"] ;
889 -> 890 ;
891 [label="gini = 0.0\nsamples = 3\nvalue = [0, 3]"] ;
890 -> 891 ;
892 [label="gini = 0.0\nsamples = 1\nvalue = [1, 0]"] ;
890 -> 892 ;
893 [label="x[2] <= 685.5\ngini = 0.415\nsamples = 17\nvalue = [12, 5]"] ;
889 -> 893 ;
894 [label="gini = 0.0\nsamples = 6\nvalue = [6, 0]"] ;
893 -> 894 ;
895 [label="x[1] <= 81.5\ngini = 0.496\nsamples = 11\nvalue = [6, 5]"] ;
893 -> 895 ;
896 [label="x[0] <= 591.0\ngini = 0.444\nsamples = 6\nvalue = [2, 4]"] ;
895 -> 896 ;
897 [label="x[3] <= 398.0\ngini = 0.32\nsamples = 5\nvalue = [1, 4]"] ;
896 -> 897 ;
898 [label="gini = 0.0\nsamples = 3\nvalue = [0, 3]"] ;
897 -> 898 ;
899 [label="x[3] <= 442.5\ngini = 0.5\nsamples = 2\nvalue = [1, 1]"] ;
897 -> 899 ;
900 [label="gini = 0.0\nsamples = 1\nvalue = [1, 0]"] ;
899 -> 900 ;
901 [label="gini = 0.0\nsamples = 1\nvalue = [0, 1]"] ;
899 -> 901 ;
902 [label="gini = 0.0\nsamples = 1\nvalue = [1, 0]"] ;
896 -> 902 ;
903 [label="x[0] <= 569.0\ngini = 0.32\nsamples = 5\nvalue = [4, 1]"] ;
895 -> 903 ;
904 [label="gini = 0.0\nsamples = 4\nvalue = [4, 0]"] ;
903 -> 904 ;
905 [label="gini = 0.0\nsamples = 1\nvalue = [0, 1]"] ;
903 -> 905 ;
906 [label="gini = 0.0\nsamples = 3\nvalue = [0, 3]"] ;
888 -> 906 ;
907 [label="gini = 0.0\nsamples = 3\nvalue = [0, 3]"] ;
875 -> 907 ;
908 [label="gini = 0.0\nsamples = 3\nvalue = [0, 3]"] ;
874 -> 908 ;
909 [label="x[2] <= 591.0\ngini = 0.198\nsamples = 9\nvalue = [8, 1]"] ;
873 -> 909 ;
910 [label="gini = 0.0\nsamples = 1\nvalue = [0, 1]"] ;
909 -> 910 ;
911 [label="gini = 0.0\nsamples = 8\nvalue = [8, 0]"] ;
909 -> 911 ;
912 [label="gini = 0.0\nsamples = 3\nvalue = [0, 3]"] ;
872 -> 912 ;
913 [label="x[1] <= 69.5\ngini = 0.124\nsamples = 15\nvalue = [14, 1]"] ;
871 -> 913 ;
914 [label="x[1] <= 56.0\ngini = 0.375\nsamples = 4\nvalue = [3, 1]"] ;
913 -> 914 ;
915 [label="gini = 0.0\nsamples = 3\nvalue = [3, 0]"] ;
914 -> 915 ;
916 [label="gini = 0.0\nsamples = 1\nvalue = [0, 1]"] ;
914 -> 916 ;
917 [label="gini = 0.0\nsamples = 11\nvalue = [11, 0]"] ;
913 -> 917 ;
918 [label="x[2] <= 843.0\ngini = 0.497\nsamples = 80\nvalue = [37, 43]"] ;
870 -> 918 ;
919 [label="x[1] <= 49.0\ngini = 0.311\nsamples = 26\nvalue = [5, 21]"] ;
918 -> 919 ;
920 [label="gini = 0.0\nsamples = 1\nvalue = [1, 0]"] ;
919 -> 920 ;
921 [label="x[0] <= 596.5\ngini = 0.269\nsamples = 25\nvalue = [4, 21]"] ;
919 -> 921 ;
922 [label="gini = 0.0\nsamples = 10\nvalue = [0, 10]"] ;
921 -> 922 ;
923 [label="x[0] <= 648.0\ngini = 0.391\nsamples = 15\nvalue = [4, 11]"] ;
921 -> 923 ;
924 [label="x[3] <= 459.0\ngini = 0.494\nsamples = 9\nvalue = [4, 5]"] ;
923 -> 924 ;
925 [label="x[0] <= 600.5\ngini = 0.408\nsamples = 7\nvalue = [2, 5]"] ;
924 -> 925 ;
926 [label="gini = 0.0\nsamples = 1\nvalue = [1, 0]"] ;
925 -> 926 ;
927 [label="x[0] <= 631.5\ngini = 0.278\nsamples = 6\nvalue = [1, 5]"] ;
925 -> 927 ;
928 [label="gini = 0.0\nsamples = 5\nvalue = [0, 5]"] ;
927 -> 928 ;
929 [label="gini = 0.0\nsamples = 1\nvalue = [1, 0]"] ;
927 -> 929 ;
930 [label="gini = 0.0\nsamples = 2\nvalue = [2, 0]"] ;
924 -> 930 ;
931 [label="gini = 0.0\nsamples = 6\nvalue = [0, 6]"] ;
923 -> 931 ;
932 [label="x[2] <= 864.5\ngini = 0.483\nsamples = 54\nvalue = [32, 22]"] ;
918 -> 932 ;
933 [label="x[3] <= 221.5\ngini = 0.18\nsamples = 10\nvalue = [9, 1]"] ;
932 -> 933 ;
934 [label="gini = 0.0\nsamples = 1\nvalue = [0, 1]"] ;
933 -> 934 ;
935 [label="gini = 0.0\nsamples = 9\nvalue = [9, 0]"] ;
933 -> 935 ;
936 [label="x[2] <= 879.5\ngini = 0.499\nsamples = 44\nvalue = [23, 21]"] ;
932 -> 936 ;
937 [label="gini = 0.0\nsamples = 5\nvalue = [0, 5]"] ;
936 -> 937 ;
938 [label="x[3] <= 312.5\ngini = 0.484\nsamples = 39\nvalue = [23, 16]"] ;
936 -> 938 ;
939 [label="gini = 0.0\nsamples = 6\nvalue = [6, 0]"] ;
938 -> 939 ;
940 [label="x[0] <= 619.0\ngini = 0.5\nsamples = 33\nvalue = [17, 16]"] ;
938 -> 940 ;
941 [label="x[2] <= 980.5\ngini = 0.469\nsamples = 24\nvalue = [15, 9]"] ;
940 -> 941 ;
942 [label="x[2] <= 916.5\ngini = 0.499\nsamples = 19\nvalue = [10, 9]"] ;
941 -> 942 ;
943 [label="x[3] <= 338.0\ngini = 0.245\nsamples = 7\nvalue = [6, 1]"] ;
942 -> 943 ;
944 [label="gini = 0.0\nsamples = 1\nvalue = [0, 1]"] ;
943 -> 944 ;
945 [label="gini = 0.0\nsamples = 6\nvalue = [6, 0]"] ;
943 -> 945 ;
946 [label="x[3] <= 427.5\ngini = 0.444\nsamples = 12\nvalue = [4, 8]"] ;
942 -> 946 ;
947 [label="x[2] <= 961.0\ngini = 0.49\nsamples = 7\nvalue = [4, 3]"] ;
946 -> 947 ;
948 [label="x[0] <= 525.5\ngini = 0.32\nsamples = 5\nvalue = [4, 1]"] ;
947 -> 948 ;
949 [label="gini = 0.0\nsamples = 1\nvalue = [0, 1]"] ;
948 -> 949 ;
950 [label="gini = 0.0\nsamples = 4\nvalue = [4, 0]"] ;
948 -> 950 ;
951 [label="gini = 0.0\nsamples = 2\nvalue = [0, 2]"] ;
947 -> 951 ;
952 [label="gini = 0.0\nsamples = 5\nvalue = [0, 5]"] ;
946 -> 952 ;
953 [label="gini = 0.0\nsamples = 5\nvalue = [5, 0]"] ;
941 -> 953 ;
954 [label="x[2] <= 947.0\ngini = 0.346\nsamples = 9\nvalue = [2, 7]"] ;
940 -> 954 ;
955 [label="x[2] <= 909.5\ngini = 0.5\nsamples = 4\nvalue = [2, 2]"] ;
954 -> 955 ;
956 [label="gini = 0.0\nsamples = 2\nvalue = [0, 2]"] ;
955 -> 956 ;
957 [label="gini = 0.0\nsamples = 2\nvalue = [2, 0]"] ;
955 -> 957 ;
958 [label="gini = 0.0\nsamples = 5\nvalue = [0, 5]"] ;
954 -> 958 ;
959 [label="x[1] <= 109.5\ngini = 0.422\nsamples = 53\nvalue = [37, 16]"] ;
869 -> 959 ;
960 [label="x[1] <= 86.0\ngini = 0.359\nsamples = 47\nvalue = [36, 11]"] ;
959 -> 960 ;
961 [label="x[2] <= 607.5\ngini = 0.444\nsamples = 27\nvalue = [18, 9]"] ;
960 -> 961 ;
962 [label="gini = 0.0\nsamples = 2\nvalue = [0, 2]"] ;
961 -> 962 ;
963 [label="x[1] <= 83.5\ngini = 0.403\nsamples = 25\nvalue = [18.0, 7.0]"] ;
961 -> 963 ;
964 [label="x[0] <= 711.0\ngini = 0.375\nsamples = 24\nvalue = [18, 6]"] ;
963 -> 964 ;
965 [label="x[0] <= 703.5\ngini = 0.494\nsamples = 9\nvalue = [5, 4]"] ;
964 -> 965 ;
966 [label="gini = 0.0\nsamples = 4\nvalue = [4, 0]"] ;
965 -> 966 ;
967 [label="x[3] <= 356.5\ngini = 0.32\nsamples = 5\nvalue = [1, 4]"] ;
965 -> 967 ;
968 [label="x[1] <= 54.0\ngini = 0.5\nsamples = 2\nvalue = [1, 1]"] ;
967 -> 968 ;
969 [label="gini = 0.0\nsamples = 1\nvalue = [0, 1]"] ;
968 -> 969 ;
970 [label="gini = 0.0\nsamples = 1\nvalue = [1, 0]"] ;
968 -> 970 ;
971 [label="gini = 0.0\nsamples = 3\nvalue = [0, 3]"] ;
967 -> 971 ;
972 [label="x[0] <= 734.5\ngini = 0.231\nsamples = 15\nvalue = [13, 2]"] ;
964 -> 972 ;
973 [label="gini = 0.0\nsamples = 11\nvalue = [11, 0]"] ;
972 -> 973 ;
974 [label="x[0] <= 737.5\ngini = 0.5\nsamples = 4\nvalue = [2, 2]"] ;
972 -> 974 ;
975 [label="x[1] <= 49.5\ngini = 0.444\nsamples = 3\nvalue = [1, 2]"] ;
974 -> 975 ;
976 [label="gini = 0.0\nsamples = 1\nvalue = [1, 0]"] ;
975 -> 976 ;
977 [label="gini = 0.0\nsamples = 2\nvalue = [0, 2]"] ;
975 -> 977 ;
978 [label="gini = 0.0\nsamples = 1\nvalue = [1, 0]"] ;
974 -> 978 ;
979 [label="gini = 0.0\nsamples = 1\nvalue = [0, 1]"] ;
963 -> 979 ;
980 [label="x[0] <= 733.5\ngini = 0.18\nsamples = 20\nvalue = [18, 2]"] ;
960 -> 980 ;
981 [label="x[2] <= 844.0\ngini = 0.105\nsamples = 18\nvalue = [17, 1]"] ;
980 -> 981 ;
982 [label="gini = 0.0\nsamples = 11\nvalue = [11, 0]"] ;
981 -> 982 ;
983 [label="x[2] <= 857.0\ngini = 0.245\nsamples = 7\nvalue = [6, 1]"] ;
981 -> 983 ;
984 [label="gini = 0.0\nsamples = 1\nvalue = [0, 1]"] ;
983 -> 984 ;
985 [label="gini = 0.0\nsamples = 6\nvalue = [6, 0]"] ;
983 -> 985 ;
986 [label="x[0] <= 738.0\ngini = 0.5\nsamples = 2\nvalue = [1, 1]"] ;
980 -> 986 ;
987 [label="gini = 0.0\nsamples = 1\nvalue = [0, 1]"] ;
986 -> 987 ;
988 [label="gini = 0.0\nsamples = 1\nvalue = [1, 0]"] ;
986 -> 988 ;
989 [label="x[1] <= 116.5\ngini = 0.278\nsamples = 6\nvalue = [1, 5]"] ;
959 -> 989 ;
990 [label="gini = 0.0\nsamples = 5\nvalue = [0, 5]"] ;
989 -> 990 ;
991 [label="gini = 0.0\nsamples = 1\nvalue = [1, 0]"] ;
989 -> 991 ;
992 [label="x[2] <= 928.0\ngini = 0.408\nsamples = 7\nvalue = [2, 5]"] ;
746 -> 992 ;
993 [label="x[2] <= 626.0\ngini = 0.278\nsamples = 6\nvalue = [1, 5]"] ;
992 -> 993 ;
994 [label="x[2] <= 592.5\ngini = 0.5\nsamples = 2\nvalue = [1, 1]"] ;
993 -> 994 ;
995 [label="gini = 0.0\nsamples = 1\nvalue = [0, 1]"] ;
994 -> 995 ;
996 [label="gini = 0.0\nsamples = 1\nvalue = [1, 0]"] ;
994 -> 996 ;
997 [label="gini = 0.0\nsamples = 4\nvalue = [0, 4]"] ;
993 -> 997 ;
998 [label="gini = 0.0\nsamples = 1\nvalue = [1, 0]"] ;
992 -> 998 ;
999 [label="x[2] <= 644.5\ngini = 0.278\nsamples = 18\nvalue = [15, 3]"] ;
745 -> 999 ;
1000 [label="x[3] <= 450.5\ngini = 0.469\nsamples = 8\nvalue = [5, 3]"] ;
999 -> 1000 ;
1001 [label="x[0] <= 628.0\ngini = 0.408\nsamples = 7\nvalue = [5, 2]"] ;
1000 -> 1001 ;
1002 [label="x[0] <= 593.5\ngini = 0.5\nsamples = 4\nvalue = [2, 2]"] ;
1001 -> 1002 ;
1003 [label="gini = 0.0\nsamples = 2\nvalue = [2, 0]"] ;
1002 -> 1003 ;
1004 [label="gini = 0.0\nsamples = 2\nvalue = [0, 2]"] ;
1002 -> 1004 ;
1005 [label="gini = 0.0\nsamples = 3\nvalue = [3, 0]"] ;
1001 -> 1005 ;
1006 [label="gini = 0.0\nsamples = 1\nvalue = [0, 1]"] ;
1000 -> 1006 ;
1007 [label="gini = 0.0\nsamples = 10\nvalue = [10, 0]"] ;
999 -> 1007 ;
1008 [label="x[2] <= 586.0\ngini = 0.475\nsamples = 18\nvalue = [7, 11]"] ;
744 -> 1008 ;
1009 [label="gini = 0.0\nsamples = 4\nvalue = [4, 0]"] ;
1008 -> 1009 ;
1010 [label="x[3] <= 282.5\ngini = 0.337\nsamples = 14\nvalue = [3, 11]"] ;
1008 -> 1010 ;
1011 [label="x[0] <= 744.5\ngini = 0.165\nsamples = 11\nvalue = [1, 10]"] ;
1010 -> 1011 ;
1012 [label="gini = 0.0\nsamples = 9\nvalue = [0, 9]"] ;
1011 -> 1012 ;
1013 [label="x[3] <= 40.0\ngini = 0.5\nsamples = 2\nvalue = [1, 1]"] ;
1011 -> 1013 ;
1014 [label="gini = 0.0\nsamples = 1\nvalue = [0, 1]"] ;
1013 -> 1014 ;
1015 [label="gini = 0.0\nsamples = 1\nvalue = [1, 0]"] ;
1013 -> 1015 ;
1016 [label="x[2] <= 669.5\ngini = 0.444\nsamples = 3\nvalue = [2, 1]"] ;
1010 -> 1016 ;
1017 [label="gini = 0.0\nsamples = 1\nvalue = [0, 1]"] ;
1016 -> 1017 ;
1018 [label="gini = 0.0\nsamples = 2\nvalue = [2, 0]"] ;
1016 -> 1018 ;
1019 [label="x[0] <= 666.5\ngini = 0.35\nsamples = 31\nvalue = [24, 7]"] ;
743 -> 1019 ;
1020 [label="x[3] <= 529.5\ngini = 0.18\nsamples = 20\nvalue = [18, 2]"] ;
1019 -> 1020 ;
1021 [label="gini = 0.0\nsamples = 10\nvalue = [10, 0]"] ;
1020 -> 1021 ;
1022 [label="x[3] <= 537.5\ngini = 0.32\nsamples = 10\nvalue = [8, 2]"] ;
1020 -> 1022 ;
1023 [label="gini = 0.0\nsamples = 2\nvalue = [0, 2]"] ;
1022 -> 1023 ;
1024 [label="gini = 0.0\nsamples = 8\nvalue = [8, 0]"] ;
1022 -> 1024 ;
1025 [label="x[0] <= 708.0\ngini = 0.496\nsamples = 11\nvalue = [6, 5]"] ;
1019 -> 1025 ;
1026 [label="x[0] <= 693.5\ngini = 0.408\nsamples = 7\nvalue = [2, 5]"] ;
1025 -> 1026 ;
1027 [label="x[1] <= 92.0\ngini = 0.444\nsamples = 3\nvalue = [2, 1]"] ;
1026 -> 1027 ;
1028 [label="gini = 0.0\nsamples = 2\nvalue = [2, 0]"] ;
1027 -> 1028 ;
1029 [label="gini = 0.0\nsamples = 1\nvalue = [0, 1]"] ;
1027 -> 1029 ;
1030 [label="gini = 0.0\nsamples = 4\nvalue = [0, 4]"] ;
1026 -> 1030 ;
1031 [label="gini = 0.0\nsamples = 4\nvalue = [4, 0]"] ;
1025 -> 1031 ;
1032 [label="x[1] <= 88.5\ngini = 0.5\nsamples = 150\nvalue = [73, 77]"] ;
732 -> 1032 ;
1033 [label="x[3] <= 560.5\ngini = 0.488\nsamples = 90\nvalue = [52.0, 38.0]"] ;
1032 -> 1033 ;
1034 [label="gini = 0.0\nsamples = 3\nvalue = [0, 3]"] ;
1033 -> 1034 ;
1035 [label="x[3] <= 569.5\ngini = 0.481\nsamples = 87\nvalue = [52.0, 35.0]"] ;
1033 -> 1035 ;
1036 [label="gini = 0.0\nsamples = 5\nvalue = [5, 0]"] ;
1035 -> 1036 ;
1037 [label="x[3] <= 596.5\ngini = 0.489\nsamples = 82\nvalue = [47.0, 35.0]"] ;
1035 -> 1037 ;
1038 [label="x[0] <= 575.5\ngini = 0.457\nsamples = 17\nvalue = [6, 11]"] ;
1037 -> 1038 ;
1039 [label="gini = 0.0\nsamples = 5\nvalue = [0, 5]"] ;
1038 -> 1039 ;
1040 [label="x[0] <= 604.5\ngini = 0.5\nsamples = 12\nvalue = [6, 6]"] ;
1038 -> 1040 ;
1041 [label="gini = 0.0\nsamples = 4\nvalue = [4, 0]"] ;
1040 -> 1041 ;
1042 [label="x[1] <= 60.5\ngini = 0.375\nsamples = 8\nvalue = [2, 6]"] ;
1040 -> 1042 ;
1043 [label="gini = 0.0\nsamples = 5\nvalue = [0, 5]"] ;
1042 -> 1043 ;
1044 [label="x[0] <= 673.0\ngini = 0.444\nsamples = 3\nvalue = [2, 1]"] ;
1042 -> 1044 ;
1045 [label="gini = 0.0\nsamples = 1\nvalue = [0, 1]"] ;
1044 -> 1045 ;
1046 [label="gini = 0.0\nsamples = 2\nvalue = [2, 0]"] ;
1044 -> 1046 ;
1047 [label="x[2] <= 953.0\ngini = 0.466\nsamples = 65\nvalue = [41, 24]"] ;
1037 -> 1047 ;
1048 [label="x[0] <= 549.0\ngini = 0.493\nsamples = 50\nvalue = [28.0, 22.0]"] ;
1047 -> 1048 ;
1049 [label="x[2] <= 627.0\ngini = 0.198\nsamples = 9\nvalue = [8, 1]"] ;
1048 -> 1049 ;
1050 [label="x[1] <= 81.0\ngini = 0.444\nsamples = 3\nvalue = [2, 1]"] ;
1049 -> 1050 ;
1051 [label="gini = 0.0\nsamples = 1\nvalue = [0, 1]"] ;
1050 -> 1051 ;
1052 [label="gini = 0.0\nsamples = 2\nvalue = [2, 0]"] ;
1050 -> 1052 ;
1053 [label="gini = 0.0\nsamples = 6\nvalue = [6, 0]"] ;
1049 -> 1053 ;
1054 [label="x[0] <= 692.0\ngini = 0.5\nsamples = 41\nvalue = [20, 21]"] ;
1048 -> 1054 ;
1055 [label="x[1] <= 81.0\ngini = 0.48\nsamples = 30\nvalue = [12, 18]"] ;
1054 -> 1055 ;
1056 [label="x[1] <= 48.5\ngini = 0.459\nsamples = 28\nvalue = [10, 18]"] ;
1055 -> 1056 ;
1057 [label="x[2] <= 858.0\ngini = 0.48\nsamples = 10\nvalue = [6, 4]"] ;
1056 -> 1057 ;
1058 [label="x[0] <= 640.0\ngini = 0.48\nsamples = 5\nvalue = [2, 3]"] ;
1057 -> 1058 ;
1059 [label="x[0] <= 570.0\ngini = 0.444\nsamples = 3\nvalue = [2, 1]"] ;
1058 -> 1059 ;
1060 [label="gini = 0.0\nsamples = 1\nvalue = [0, 1]"] ;
1059 -> 1060 ;
1061 [label="gini = 0.0\nsamples = 2\nvalue = [2, 0]"] ;
1059 -> 1061 ;
1062 [label="gini = 0.0\nsamples = 2\nvalue = [0, 2]"] ;
1058 -> 1062 ;
1063 [label="x[3] <= 642.0\ngini = 0.32\nsamples = 5\nvalue = [4, 1]"] ;
1057 -> 1063 ;
1064 [label="x[3] <= 619.0\ngini = 0.5\nsamples = 2\nvalue = [1, 1]"] ;
1063 -> 1064 ;
1065 [label="gini = 0.0\nsamples = 1\nvalue = [1, 0]"] ;
1064 -> 1065 ;
1066 [label="gini = 0.0\nsamples = 1\nvalue = [0, 1]"] ;
1064 -> 1066 ;
1067 [label="gini = 0.0\nsamples = 3\nvalue = [3, 0]"] ;
1063 -> 1067 ;
1068 [label="x[1] <= 77.5\ngini = 0.346\nsamples = 18\nvalue = [4, 14]"] ;
1056 -> 1068 ;
1069 [label="x[1] <= 71.0\ngini = 0.408\nsamples = 14\nvalue = [4, 10]"] ;
1068 -> 1069 ;
1070 [label="x[2] <= 682.0\ngini = 0.198\nsamples = 9\nvalue = [1, 8]"] ;
1069 -> 1070 ;
1071 [label="x[0] <= 686.0\ngini = 0.5\nsamples = 2\nvalue = [1, 1]"] ;
1070 -> 1071 ;
1072 [label="gini = 0.0\nsamples = 1\nvalue = [1, 0]"] ;
1071 -> 1072 ;
1073 [label="gini = 0.0\nsamples = 1\nvalue = [0, 1]"] ;
1071 -> 1073 ;
1074 [label="gini = 0.0\nsamples = 7\nvalue = [0, 7]"] ;
1070 -> 1074 ;
1075 [label="x[3] <= 675.5\ngini = 0.48\nsamples = 5\nvalue = [3, 2]"] ;
1069 -> 1075 ;
1076 [label="gini = 0.0\nsamples = 2\nvalue = [2, 0]"] ;
1075 -> 1076 ;
1077 [label="x[2] <= 723.0\ngini = 0.444\nsamples = 3\nvalue = [1, 2]"] ;
1075 -> 1077 ;
1078 [label="gini = 0.0\nsamples = 1\nvalue = [1, 0]"] ;
1077 -> 1078 ;
1079 [label="gini = 0.0\nsamples = 2\nvalue = [0, 2]"] ;
1077 -> 1079 ;
1080 [label="gini = 0.0\nsamples = 4\nvalue = [0, 4]"] ;
1068 -> 1080 ;
1081 [label="gini = 0.0\nsamples = 2\nvalue = [2, 0]"] ;
1055 -> 1081 ;
1082 [label="x[2] <= 913.5\ngini = 0.397\nsamples = 11\nvalue = [8, 3]"] ;
1054 -> 1082 ;
1083 [label="x[0] <= 737.5\ngini = 0.198\nsamples = 9\nvalue = [8, 1]"] ;
1082 -> 1083 ;
1084 [label="gini = 0.0\nsamples = 8\nvalue = [8, 0]"] ;
1083 -> 1084 ;
1085 [label="gini = 0.0\nsamples = 1\nvalue = [0, 1]"] ;
1083 -> 1085 ;
1086 [label="gini = 0.0\nsamples = 2\nvalue = [0, 2]"] ;
1082 -> 1086 ;
1087 [label="x[3] <= 683.5\ngini = 0.231\nsamples = 15\nvalue = [13, 2]"] ;
1047 -> 1087 ;
1088 [label="gini = 0.0\nsamples = 13\nvalue = [13, 0]"] ;
1087 -> 1088 ;
1089 [label="gini = 0.0\nsamples = 2\nvalue = [0, 2]"] ;
1087 -> 1089 ;
1090 [label="x[3] <= 593.5\ngini = 0.455\nsamples = 60\nvalue = [21, 39]"] ;
1032 -> 1090 ;
1091 [label="x[0] <= 533.0\ngini = 0.231\nsamples = 15\nvalue = [2, 13]"] ;
1090 -> 1091 ;
1092 [label="gini = 0.0\nsamples = 1\nvalue = [1, 0]"] ;
1091 -> 1092 ;
1093 [label="x[1] <= 118.5\ngini = 0.133\nsamples = 14\nvalue = [1, 13]"] ;
1091 -> 1093 ;
1094 [label="gini = 0.0\nsamples = 13\nvalue = [0, 13]"] ;
1093 -> 1094 ;
1095 [label="gini = 0.0\nsamples = 1\nvalue = [1, 0]"] ;
1093 -> 1095 ;
1096 [label="x[3] <= 683.5\ngini = 0.488\nsamples = 45\nvalue = [19.0, 26.0]"] ;
1090 -> 1096 ;
1097 [label="x[2] <= 718.0\ngini = 0.5\nsamples = 37\nvalue = [18, 19]"] ;
1096 -> 1097 ;
1098 [label="x[1] <= 105.5\ngini = 0.455\nsamples = 20\nvalue = [7, 13]"] ;
1097 -> 1098 ;
1099 [label="x[3] <= 664.5\ngini = 0.494\nsamples = 9\nvalue = [5, 4]"] ;
1098 -> 1099 ;
1100 [label="x[0] <= 634.0\ngini = 0.444\nsamples = 6\nvalue = [2, 4]"] ;
1099 -> 1100 ;
1101 [label="x[2] <= 600.5\ngini = 0.444\nsamples = 3\nvalue = [2, 1]"] ;
1100 -> 1101 ;
1102 [label="gini = 0.0\nsamples = 2\nvalue = [2, 0]"] ;
1101 -> 1102 ;
1103 [label="gini = 0.0\nsamples = 1\nvalue = [0, 1]"] ;
1101 -> 1103 ;
1104 [label="gini = 0.0\nsamples = 3\nvalue = [0, 3]"] ;
1100 -> 1104 ;
1105 [label="gini = 0.0\nsamples = 3\nvalue = [3, 0]"] ;
1099 -> 1105 ;
1106 [label="x[2] <= 551.0\ngini = 0.298\nsamples = 11\nvalue = [2, 9]"] ;
1098 -> 1106 ;
1107 [label="gini = 0.0\nsamples = 1\nvalue = [1, 0]"] ;
1106 -> 1107 ;
1108 [label="x[1] <= 111.5\ngini = 0.18\nsamples = 10\nvalue = [1, 9]"] ;
1106 -> 1108 ;
1109 [label="x[1] <= 109.0\ngini = 0.375\nsamples = 4\nvalue = [1, 3]"] ;
1108 -> 1109 ;
1110 [label="gini = 0.0\nsamples = 3\nvalue = [0, 3]"] ;
1109 -> 1110 ;
1111 [label="gini = 0.0\nsamples = 1\nvalue = [1, 0]"] ;
1109 -> 1111 ;
1112 [label="gini = 0.0\nsamples = 6\nvalue = [0, 6]"] ;
1108 -> 1112 ;
1113 [label="x[2] <= 924.0\ngini = 0.457\nsamples = 17\nvalue = [11, 6]"] ;
1097 -> 1113 ;
1114 [label="x[0] <= 562.0\ngini = 0.391\nsamples = 15\nvalue = [11, 4]"] ;
1113 -> 1114 ;
1115 [label="x[0] <= 521.0\ngini = 0.444\nsamples = 3\nvalue = [1, 2]"] ;
1114 -> 1115 ;
1116 [label="gini = 0.0\nsamples = 1\nvalue = [1, 0]"] ;
1115 -> 1116 ;
1117 [label="gini = 0.0\nsamples = 2\nvalue = [0, 2]"] ;
1115 -> 1117 ;
1118 [label="x[0] <= 738.5\ngini = 0.278\nsamples = 12\nvalue = [10, 2]"] ;
1114 -> 1118 ;
1119 [label="x[1] <= 98.5\ngini = 0.165\nsamples = 11\nvalue = [10, 1]"] ;
1118 -> 1119 ;
1120 [label="x[0] <= 737.5\ngini = 0.5\nsamples = 2\nvalue = [1, 1]"] ;
1119 -> 1120 ;
1121 [label="gini = 0.0\nsamples = 1\nvalue = [0, 1]"] ;
1120 -> 1121 ;
1122 [label="gini = 0.0\nsamples = 1\nvalue = [1, 0]"] ;
1120 -> 1122 ;
1123 [label="gini = 0.0\nsamples = 9\nvalue = [9, 0]"] ;
1119 -> 1123 ;
1124 [label="gini = 0.0\nsamples = 1\nvalue = [0, 1]"] ;
1118 -> 1124 ;
1125 [label="gini = 0.0\nsamples = 2\nvalue = [0, 2]"] ;
1113 -> 1125 ;
1126 [label="x[1] <= 97.0\ngini = 0.219\nsamples = 8\nvalue = [1, 7]"] ;
1096 -> 1126 ;
1127 [label="gini = 0.0\nsamples = 1\nvalue = [1, 0]"] ;
1126 -> 1127 ;
1128 [label="gini = 0.0\nsamples = 7\nvalue = [0, 7]"] ;
1126 -> 1128 ;
1129 [label="x[3] <= 563.5\ngini = 0.5\nsamples = 2626\nvalue = [1350.0, 1276.0]"] ;
429 -> 1129 ;
1130 [label="x[0] <= 689.5\ngini = 0.5\nsamples = 2100\nvalue = [1050, 1050]"] ;
1129 -> 1130 ;
1131 [label="x[0] <= 597.5\ngini = 0.5\nsamples = 1610\nvalue = [827.0, 783.0]"] ;
1130 -> 1131 ;
1132 [label="x[1] <= 157.5\ngini = 0.5\nsamples = 864\nvalue = [420.0, 444.0]"] ;
1131 -> 1132 ;
1133 [label="x[3] <= 35.5\ngini = 0.487\nsamples = 145\nvalue = [84, 61]"] ;
1132 -> 1133 ;
1134 [label="gini = 0.0\nsamples = 7\nvalue = [7, 0]"] ;
1133 -> 1134 ;
1135 [label="x[1] <= 132.5\ngini = 0.493\nsamples = 138\nvalue = [77, 61]"] ;
1133 -> 1135 ;
1136 [label="x[2] <= 261.5\ngini = 0.484\nsamples = 39\nvalue = [16, 23]"] ;
1135 -> 1136 ;
1137 [label="x[2] <= 223.5\ngini = 0.408\nsamples = 7\nvalue = [5, 2]"] ;
1136 -> 1137 ;
1138 [label="x[0] <= 565.5\ngini = 0.444\nsamples = 3\nvalue = [1, 2]"] ;
1137 -> 1138 ;
1139 [label="gini = 0.0\nsamples = 2\nvalue = [0, 2]"] ;
1138 -> 1139 ;
1140 [label="gini = 0.0\nsamples = 1\nvalue = [1, 0]"] ;
1138 -> 1140 ;
1141 [label="gini = 0.0\nsamples = 4\nvalue = [4, 0]"] ;
1137 -> 1141 ;
1142 [label="x[2] <= 950.0\ngini = 0.451\nsamples = 32\nvalue = [11, 21]"] ;
1136 -> 1142 ;
1143 [label="x[3] <= 498.0\ngini = 0.42\nsamples = 30\nvalue = [9, 21]"] ;
1142 -> 1143 ;
1144 [label="x[3] <= 127.0\ngini = 0.298\nsamples = 22\nvalue = [4, 18]"] ;
1143 -> 1144 ;
1145 [label="x[0] <= 536.0\ngini = 0.5\nsamples = 4\nvalue = [2, 2]"] ;
1144 -> 1145 ;
1146 [label="gini = 0.0\nsamples = 1\nvalue = [1, 0]"] ;
1145 -> 1146 ;
1147 [label="x[1] <= 130.0\ngini = 0.444\nsamples = 3\nvalue = [1, 2]"] ;
1145 -> 1147 ;
1148 [label="gini = 0.0\nsamples = 2\nvalue = [0, 2]"] ;
1147 -> 1148 ;
1149 [label="gini = 0.0\nsamples = 1\nvalue = [1, 0]"] ;
1147 -> 1149 ;
1150 [label="x[1] <= 127.5\ngini = 0.198\nsamples = 18\nvalue = [2, 16]"] ;
1144 -> 1150 ;
1151 [label="x[1] <= 125.5\ngini = 0.346\nsamples = 9\nvalue = [2, 7]"] ;
1150 -> 1151 ;
1152 [label="gini = 0.0\nsamples = 5\nvalue = [0, 5]"] ;
1151 -> 1152 ;
1153 [label="x[0] <= 547.0\ngini = 0.5\nsamples = 4\nvalue = [2, 2]"] ;
1151 -> 1153 ;
1154 [label="gini = 0.0\nsamples = 1\nvalue = [1, 0]"] ;
1153 -> 1154 ;
1155 [label="x[2] <= 535.5\ngini = 0.444\nsamples = 3\nvalue = [1, 2]"] ;
1153 -> 1155 ;
1156 [label="gini = 0.0\nsamples = 1\nvalue = [0, 1]"] ;
1155 -> 1156 ;
1157 [label="x[3] <= 381.0\ngini = 0.5\nsamples = 2\nvalue = [1, 1]"] ;
1155 -> 1157 ;
1158 [label="gini = 0.0\nsamples = 1\nvalue = [1, 0]"] ;
1157 -> 1158 ;
1159 [label="gini = 0.0\nsamples = 1\nvalue = [0, 1]"] ;
1157 -> 1159 ;
1160 [label="gini = 0.0\nsamples = 9\nvalue = [0, 9]"] ;
1150 -> 1160 ;
1161 [label="x[0] <= 516.5\ngini = 0.469\nsamples = 8\nvalue = [5, 3]"] ;
1143 -> 1161 ;
1162 [label="gini = 0.0\nsamples = 2\nvalue = [0, 2]"] ;
1161 -> 1162 ;
1163 [label="x[1] <= 129.5\ngini = 0.278\nsamples = 6\nvalue = [5, 1]"] ;
1161 -> 1163 ;
1164 [label="gini = 0.0\nsamples = 5\nvalue = [5, 0]"] ;
1163 -> 1164 ;
1165 [label="gini = 0.0\nsamples = 1\nvalue = [0, 1]"] ;
1163 -> 1165 ;
1166 [label="gini = 0.0\nsamples = 2\nvalue = [2, 0]"] ;
1142 -> 1166 ;
1167 [label="x[2] <= 167.5\ngini = 0.473\nsamples = 99\nvalue = [61, 38]"] ;
1135 -> 1167 ;
1168 [label="gini = 0.0\nsamples = 2\nvalue = [0, 2]"] ;
1167 -> 1168 ;
1169 [label="x[0] <= 594.5\ngini = 0.467\nsamples = 97\nvalue = [61, 36]"] ;
1167 -> 1169 ;
1170 [label="x[3] <= 400.0\ngini = 0.46\nsamples = 95\nvalue = [61, 34]"] ;
1169 -> 1170 ;
1171 [label="x[3] <= 267.0\ngini = 0.424\nsamples = 72\nvalue = [50, 22]"] ;
1170 -> 1171 ;
1172 [label="x[3] <= 197.0\ngini = 0.473\nsamples = 47\nvalue = [29, 18]"] ;
1171 -> 1172 ;
1173 [label="x[0] <= 571.0\ngini = 0.389\nsamples = 34\nvalue = [25, 9]"] ;
1172 -> 1173 ;
1174 [label="x[1] <= 146.5\ngini = 0.252\nsamples = 27\nvalue = [23, 4]"] ;
1173 -> 1174 ;
1175 [label="gini = 0.0\nsamples = 12\nvalue = [12, 0]"] ;
1174 -> 1175 ;
1176 [label="x[0] <= 551.0\ngini = 0.391\nsamples = 15\nvalue = [11, 4]"] ;
1174 -> 1176 ;
1177 [label="x[3] <= 81.0\ngini = 0.278\nsamples = 12\nvalue = [10, 2]"] ;
1176 -> 1177 ;
1178 [label="x[1] <= 152.0\ngini = 0.444\nsamples = 3\nvalue = [1, 2]"] ;
1177 -> 1178 ;
1179 [label="gini = 0.0\nsamples = 2\nvalue = [0, 2]"] ;
1178 -> 1179 ;
1180 [label="gini = 0.0\nsamples = 1\nvalue = [1, 0]"] ;
1178 -> 1180 ;
1181 [label="gini = 0.0\nsamples = 9\nvalue = [9, 0]"] ;
1177 -> 1181 ;
1182 [label="x[0] <= 566.0\ngini = 0.444\nsamples = 3\nvalue = [1, 2]"] ;
1176 -> 1182 ;
1183 [label="gini = 0.0\nsamples = 2\nvalue = [0, 2]"] ;
1182 -> 1183 ;
1184 [label="gini = 0.0\nsamples = 1\nvalue = [1, 0]"] ;
1182 -> 1184 ;
1185 [label="x[2] <= 211.0\ngini = 0.408\nsamples = 7\nvalue = [2, 5]"] ;
1173 -> 1185 ;
1186 [label="gini = 0.0\nsamples = 2\nvalue = [2, 0]"] ;
1185 -> 1186 ;
1187 [label="gini = 0.0\nsamples = 5\nvalue = [0, 5]"] ;
1185 -> 1187 ;
1188 [label="x[0] <= 529.5\ngini = 0.426\nsamples = 13\nvalue = [4, 9]"] ;
1172 -> 1188 ;
1189 [label="x[1] <= 143.5\ngini = 0.444\nsamples = 6\nvalue = [4, 2]"] ;
1188 -> 1189 ;
1190 [label="x[0] <= 518.5\ngini = 0.444\nsamples = 3\nvalue = [1, 2]"] ;
1189 -> 1190 ;
1191 [label="gini = 0.0\nsamples = 2\nvalue = [0, 2]"] ;
1190 -> 1191 ;
1192 [label="gini = 0.0\nsamples = 1\nvalue = [1, 0]"] ;
1190 -> 1192 ;
1193 [label="gini = 0.0\nsamples = 3\nvalue = [3, 0]"] ;
1189 -> 1193 ;
1194 [label="gini = 0.0\nsamples = 7\nvalue = [0, 7]"] ;
1188 -> 1194 ;
1195 [label="x[1] <= 143.5\ngini = 0.269\nsamples = 25\nvalue = [21, 4]"] ;
1171 -> 1195 ;
1196 [label="gini = 0.0\nsamples = 12\nvalue = [12, 0]"] ;
1195 -> 1196 ;
1197 [label="x[0] <= 551.5\ngini = 0.426\nsamples = 13\nvalue = [9, 4]"] ;
1195 -> 1197 ;
1198 [label="x[2] <= 304.0\ngini = 0.375\nsamples = 4\nvalue = [1, 3]"] ;
1197 -> 1198 ;
1199 [label="gini = 0.0\nsamples = 1\nvalue = [1, 0]"] ;
1198 -> 1199 ;
1200 [label="gini = 0.0\nsamples = 3\nvalue = [0, 3]"] ;
1198 -> 1200 ;
1201 [label="x[2] <= 255.0\ngini = 0.198\nsamples = 9\nvalue = [8, 1]"] ;
1197 -> 1201 ;
1202 [label="gini = 0.0\nsamples = 1\nvalue = [0, 1]"] ;
1201 -> 1202 ;
1203 [label="gini = 0.0\nsamples = 8\nvalue = [8, 0]"] ;
1201 -> 1203 ;
1204 [label="x[3] <= 481.0\ngini = 0.499\nsamples = 23\nvalue = [11, 12]"] ;
1170 -> 1204 ;
1205 [label="x[1] <= 150.0\ngini = 0.198\nsamples = 9\nvalue = [1, 8]"] ;
1204 -> 1205 ;
1206 [label="gini = 0.0\nsamples = 7\nvalue = [0, 7]"] ;
1205 -> 1206 ;
1207 [label="x[0] <= 533.5\ngini = 0.5\nsamples = 2\nvalue = [1, 1]"] ;
1205 -> 1207 ;
1208 [label="gini = 0.0\nsamples = 1\nvalue = [0, 1]"] ;
1207 -> 1208 ;
1209 [label="gini = 0.0\nsamples = 1\nvalue = [1, 0]"] ;
1207 -> 1209 ;
1210 [label="x[3] <= 537.0\ngini = 0.408\nsamples = 14\nvalue = [10, 4]"] ;
1204 -> 1210 ;
1211 [label="x[0] <= 544.0\ngini = 0.298\nsamples = 11\nvalue = [9, 2]"] ;
1210 -> 1211 ;
1212 [label="x[0] <= 519.0\ngini = 0.48\nsamples = 5\nvalue = [3, 2]"] ;
1211 -> 1212 ;
1213 [label="gini = 0.0\nsamples = 2\nvalue = [2, 0]"] ;
1212 -> 1213 ;
1214 [label="x[1] <= 150.0\ngini = 0.444\nsamples = 3\nvalue = [1, 2]"] ;
1212 -> 1214 ;
1215 [label="gini = 0.0\nsamples = 2\nvalue = [0, 2]"] ;
1214 -> 1215 ;
1216 [label="gini = 0.0\nsamples = 1\nvalue = [1, 0]"] ;
1214 -> 1216 ;
1217 [label="gini = 0.0\nsamples = 6\nvalue = [6, 0]"] ;
1211 -> 1217 ;
1218 [label="x[0] <= 540.5\ngini = 0.444\nsamples = 3\nvalue = [1, 2]"] ;
1210 -> 1218 ;
1219 [label="gini = 0.0\nsamples = 1\nvalue = [1, 0]"] ;
1218 -> 1219 ;
1220 [label="gini = 0.0\nsamples = 2\nvalue = [0, 2]"] ;
1218 -> 1220 ;
1221 [label="gini = 0.0\nsamples = 2\nvalue = [0, 2]"] ;
1169 -> 1221 ;
1222 [label="x[1] <= 199.5\ngini = 0.498\nsamples = 719\nvalue = [336, 383]"] ;
1132 -> 1222 ;
1223 [label="x[2] <= 566.5\ngini = 0.482\nsamples = 237\nvalue = [96, 141]"] ;
1222 -> 1223 ;
1224 [label="x[3] <= 8.0\ngini = 0.446\nsamples = 116\nvalue = [39, 77]"] ;
1223 -> 1224 ;
1225 [label="gini = 0.0\nsamples = 3\nvalue = [3, 0]"] ;
1224 -> 1225 ;
1226 [label="x[0] <= 515.5\ngini = 0.434\nsamples = 113\nvalue = [36, 77]"] ;
1224 -> 1226 ;
1227 [label="x[2] <= 354.5\ngini = 0.494\nsamples = 18\nvalue = [10, 8]"] ;
1226 -> 1227 ;
1228 [label="x[0] <= 510.5\ngini = 0.278\nsamples = 6\nvalue = [1, 5]"] ;
1227 -> 1228 ;
1229 [label="gini = 0.0\nsamples = 5\nvalue = [0, 5]"] ;
1228 -> 1229 ;
1230 [label="gini = 0.0\nsamples = 1\nvalue = [1, 0]"] ;
1228 -> 1230 ;
1231 [label="x[2] <= 544.0\ngini = 0.375\nsamples = 12\nvalue = [9, 3]"] ;
1227 -> 1231 ;
1232 [label="x[0] <= 503.5\ngini = 0.18\nsamples = 10\nvalue = [9, 1]"] ;
1231 -> 1232 ;
1233 [label="x[3] <= 277.0\ngini = 0.5\nsamples = 2\nvalue = [1, 1]"] ;
1232 -> 1233 ;
1234 [label="gini = 0.0\nsamples = 1\nvalue = [1, 0]"] ;
1233 -> 1234 ;
1235 [label="gini = 0.0\nsamples = 1\nvalue = [0, 1]"] ;
1233 -> 1235 ;
1236 [label="gini = 0.0\nsamples = 8\nvalue = [8, 0]"] ;
1232 -> 1236 ;
1237 [label="gini = 0.0\nsamples = 2\nvalue = [0, 2]"] ;
1231 -> 1237 ;
1238 [label="x[3] <= 303.5\ngini = 0.398\nsamples = 95\nvalue = [26, 69]"] ;
1226 -> 1238 ;
1239 [label="x[1] <= 172.5\ngini = 0.278\nsamples = 54\nvalue = [9, 45]"] ;
1238 -> 1239 ;
1240 [label="x[3] <= 290.5\ngini = 0.091\nsamples = 21\nvalue = [1, 20]"] ;
1239 -> 1240 ;
1241 [label="gini = 0.0\nsamples = 19\nvalue = [0, 19]"] ;
1240 -> 1241 ;
1242 [label="x[3] <= 296.5\ngini = 0.5\nsamples = 2\nvalue = [1, 1]"] ;
1240 -> 1242 ;
1243 [label="gini = 0.0\nsamples = 1\nvalue = [1, 0]"] ;
1242 -> 1243 ;
1244 [label="gini = 0.0\nsamples = 1\nvalue = [0, 1]"] ;
1242 -> 1244 ;
1245 [label="x[1] <= 174.5\ngini = 0.367\nsamples = 33\nvalue = [8, 25]"] ;
1239 -> 1245 ;
1246 [label="gini = 0.0\nsamples = 2\nvalue = [2, 0]"] ;
1245 -> 1246 ;
1247 [label="x[3] <= 163.0\ngini = 0.312\nsamples = 31\nvalue = [6, 25]"] ;
1245 -> 1247 ;
1248 [label="x[3] <= 69.5\ngini = 0.457\nsamples = 17\nvalue = [6, 11]"] ;
1247 -> 1248 ;
1249 [label="x[2] <= 415.0\ngini = 0.198\nsamples = 9\nvalue = [1, 8]"] ;
1248 -> 1249 ;
1250 [label="gini = 0.0\nsamples = 7\nvalue = [0, 7]"] ;
1249 -> 1250 ;
1251 [label="x[1] <= 181.5\ngini = 0.5\nsamples = 2\nvalue = [1, 1]"] ;
1249 -> 1251 ;
1252 [label="gini = 0.0\nsamples = 1\nvalue = [0, 1]"] ;
1251 -> 1252 ;
1253 [label="gini = 0.0\nsamples = 1\nvalue = [1, 0]"] ;
1251 -> 1253 ;
1254 [label="x[2] <= 345.0\ngini = 0.469\nsamples = 8\nvalue = [5, 3]"] ;
1248 -> 1254 ;
1255 [label="gini = 0.0\nsamples = 4\nvalue = [4, 0]"] ;
1254 -> 1255 ;
1256 [label="x[0] <= 589.0\ngini = 0.375\nsamples = 4\nvalue = [1, 3]"] ;
1254 -> 1256 ;
1257 [label="gini = 0.0\nsamples = 3\nvalue = [0, 3]"] ;
1256 -> 1257 ;
1258 [label="gini = 0.0\nsamples = 1\nvalue = [1, 0]"] ;
1256 -> 1258 ;
1259 [label="gini = 0.0\nsamples = 14\nvalue = [0, 14]"] ;
1247 -> 1259 ;
1260 [label="x[0] <= 560.0\ngini = 0.485\nsamples = 41\nvalue = [17, 24]"] ;
1238 -> 1260 ;
1261 [label="x[3] <= 497.0\ngini = 0.486\nsamples = 24\nvalue = [14, 10]"] ;
1260 -> 1261 ;
1262 [label="x[0] <= 539.5\ngini = 0.375\nsamples = 16\nvalue = [12, 4]"] ;
1261 -> 1262 ;
1263 [label="x[0] <= 537.0\ngini = 0.494\nsamples = 9\nvalue = [5, 4]"] ;
1262 -> 1263 ;
1264 [label="x[1] <= 189.5\ngini = 0.408\nsamples = 7\nvalue = [5, 2]"] ;
1263 -> 1264 ;
1265 [label="x[0] <= 520.0\ngini = 0.278\nsamples = 6\nvalue = [5, 1]"] ;
1264 -> 1265 ;
1266 [label="gini = 0.0\nsamples = 1\nvalue = [0, 1]"] ;
1265 -> 1266 ;
1267 [label="gini = 0.0\nsamples = 5\nvalue = [5, 0]"] ;
1265 -> 1267 ;
1268 [label="gini = 0.0\nsamples = 1\nvalue = [0, 1]"] ;
1264 -> 1268 ;
